const float fc1_weight[80][196] = 
{
 {0.01306685991585254669 ,0.11117473244667053223 ,0.54153370857238769531 ,1.20581793785095214844 ,5.74524497985839843750 ,4.49059391021728515625 ,3.94001245498657226562 ,5.31158733367919921875 ,2.25024509429931640625 ,1.32923245429992675781 ,0.86607122421264648438 ,0.91544795036315917969 ,2.57948255538940429688 ,0.42223516106605529785 ,0.18054951727390289307 ,-0.12614338099956512451 ,1.90708315372467041016 ,1.97142648696899414062 ,3.73987102508544921875 ,1.43149471282958984375 ,1.19290983676910400391 ,0.64804029464721679688 ,0.87786334753036499023 ,0.05886197090148925781 ,-0.49526798725128173828 ,-0.05785607919096946716 ,-0.82396811246871948242 ,-4.41672754287719726562 ,-0.30283948779106140137 ,7.00439929962158203125 ,0.17718270421028137207 ,0.15547506511211395264 ,0.77561807632446289062 ,1.46305513381958007812 ,-0.41915649175643920898 ,0.04757229238748550415 ,0.38219702243804931641 ,0.75267612934112548828 ,1.01621687412261962891 ,-0.65030902624130249023 ,-0.65856313705444335938 ,-1.78136432170867919922 ,0.12853823602199554443 ,7.20169639587402343750 ,0.13144503533840179443 ,-0.32003739476203918457 ,-0.52012413740158081055 ,-0.13394923508167266846 ,-0.64510732889175415039 ,0.92247289419174194336 ,0.09995576739311218262 ,-0.44087511301040649414 ,-1.03303599357604980469 ,0.54129725694656372070 ,-0.91388201713562011719 ,-0.12740619480609893799 ,-0.04558504372835159302 ,1.00377750396728515625 ,-0.28707200288772583008 ,0.58926057815551757812 ,0.27862745523452758789 ,-0.59605205059051513672 ,0.75232827663421630859 ,1.18531513214111328125 ,0.65788996219635009766 ,0.19033624231815338135 ,-1.07105624675750732422 ,-0.77051866054534912109 ,-1.33954763412475585938 ,-0.26326605677604675293 ,0.78038477897644042969 ,2.26648664474487304688 ,-0.32332748174667358398 ,1.28469014167785644531 ,-0.53225648403167724609 ,-0.89065158367156982422 ,-0.09875903278589248657 ,1.22801363468170166016 ,0.42453417181968688965 ,-0.26344686746597290039 ,-0.58570015430450439453 ,-0.88666498661041259766 ,0.10777526348829269409 ,0.99424481391906738281 ,0.96755951642990112305 ,0.14798915386199951172 ,-0.67264807224273681641 ,-0.42888519167900085449 ,-0.45934650301933288574 ,-0.06012551486492156982 ,0.08337235450744628906 ,0.10941565781831741333 ,-1.06711924076080322266 ,-1.21595680713653564453 ,0.17653173208236694336 ,0.27324759960174560547 ,-0.24550828337669372559 ,-2.04244422912597656250 ,0.07119004428386688232 ,-0.15002802014350891113 ,0.21335828304290771484 ,0.29344165325164794922 ,2.12065029144287109375 ,1.17570173740386962891 ,-0.13503699004650115967 ,0.53436636924743652344 ,0.35904753208160400391 ,-0.88558161258697509766 ,-0.65972131490707397461 ,0.13261081278324127197 ,0.35413312911987304688 ,2.09799599647521972656 ,-4.97664499282836914062 ,1.63546180725097656250 ,-0.01912967115640640259 ,1.06643283367156982422 ,1.92483925819396972656 ,0.11452604830265045166 ,-1.04534709453582763672 ,0.25790172815322875977 ,0.29220351576805114746 ,0.09042806923389434814 ,0.65226405858993530273 ,0.62969690561294555664 ,0.64984726905822753906 ,1.37148213386535644531 ,-7.92005157470703125000 ,-0.46439352631568908691 ,0.16692534089088439941 ,0.78295975923538208008 ,0.93959259986877441406 ,-0.10150930285453796387 ,-0.67502266168594360352 ,0.83120775222778320312 ,0.51715958118438720703 ,0.33901354670524597168 ,-0.00509004993364214897 ,1.52014887332916259766 ,0.84610784053802490234 ,0.19048702716827392578 ,-1.16858768463134765625 ,1.62044620513916015625 ,-0.72923141717910766602 ,0.40502360463142395020 ,0.24583637714385986328 ,-0.06325092166662216187 ,-0.30577442049980163574 ,0.62123495340347290039 ,0.62093961238861083984 ,1.07580173015594482422 ,1.26116001605987548828 ,1.64399218559265136719 ,-1.19132375717163085938 ,3.08836054801940917969 ,0.55885434150695800781 ,1.39412844181060791016 ,1.54767632484436035156 ,1.56488251686096191406 ,1.46183598041534423828 ,0.53860253095626831055 ,-0.42776688933372497559 ,-1.34924924373626708984 ,-1.73357665538787841797 ,0.14427797496318817139 ,0.08083986490964889526 ,0.20036666095256805420 ,-0.41007718443870544434 ,0.95417088270187377930 ,0.52450609207153320312 ,-2.71940588951110839844 ,-1.39907836914062500000 ,-2.39854049682617187500 ,-0.16365171968936920166 ,0.10398645699024200439 ,-3.75348520278930664062 ,-2.77739477157592773438 ,-4.85715389251708984375 ,-3.03109860420227050781 ,-0.92377859354019165039 ,-1.88176071643829345703 ,-2.51239657402038574219 ,0.95490241050720214844 ,-0.00937763415277004242 ,-3.30613040924072265625 ,-2.19407725334167480469 ,-9.37488937377929687500 ,-5.99167966842651367188 ,-4.57431459426879882812 ,-6.92946386337280273438 ,1.70708394050598144531 ,-0.98701584339141845703 ,-7.56108570098876953125 ,-5.62734937667846679688 ,-5.39196395874023437500 ,1.99559295177459716797 ,1.08322632312774658203  },
 {0.06271409988403320312 ,0.08258517831563949585 ,0.30071234703063964844 ,0.18130053579807281494 ,1.67043697834014892578 ,1.92489540576934814453 ,2.94043254852294921875 ,-0.35976123809814453125 ,-2.61737012863159179688 ,-1.24036288261413574219 ,-0.76912617683410644531 ,0.72198092937469482422 ,0.19856585562229156494 ,0.13012342154979705811 ,-0.19494415819644927979 ,-1.28668355941772460938 ,1.31841814517974853516 ,0.55815440416336059570 ,1.64209651947021484375 ,1.76771390438079833984 ,0.87131828069686889648 ,0.74781596660614013672 ,0.33085814118385314941 ,0.25803536176681518555 ,0.71894592046737670898 ,-1.41668784618377685547 ,1.31939733028411865234 ,1.42191696166992187500 ,-0.74222373962402343750 ,-1.20166194438934326172 ,-0.37519261240959167480 ,-0.74269849061965942383 ,0.71634018421173095703 ,0.51556009054183959961 ,1.06684947013854980469 ,-0.42687788605690002441 ,-2.20108652114868164062 ,-0.84969347715377807617 ,-0.59380590915679931641 ,1.37807452678680419922 ,2.98566913604736328125 ,0.74909603595733642578 ,2.14539003372192382812 ,-1.16430401802062988281 ,0.79134422540664672852 ,0.08621033281087875366 ,0.41870284080505371094 ,1.54912793636322021484 ,1.65707612037658691406 ,-1.40538942813873291016 ,-1.24330234527587890625 ,0.79180961847305297852 ,-0.48814308643341064453 ,-0.05751030519604682922 ,0.49706420302391052246 ,1.50962829589843750000 ,3.57238888740539550781 ,0.54243916273117065430 ,-0.40968042612075805664 ,0.48420479893684387207 ,-0.35096549987792968750 ,0.89363729953765869141 ,2.01384782791137695312 ,-1.31494832038879394531 ,-0.55244952440261840820 ,1.03195202350616455078 ,0.11021198332309722900 ,-0.64636141061782836914 ,0.13962291181087493896 ,-0.18960380554199218750 ,-0.92860430479049682617 ,1.11496448516845703125 ,0.74349403381347656250 ,-0.18363837897777557373 ,-0.74971663951873779297 ,0.11848033964633941650 ,1.85060405731201171875 ,-0.90624552965164184570 ,-0.41505298018455505371 ,0.62487310171127319336 ,-0.34646359086036682129 ,0.12395635992288589478 ,-0.27845445275306701660 ,-5.49744367599487304688 ,-5.96451187133789062500 ,2.73801183700561523438 ,0.26040682196617126465 ,-0.06374329328536987305 ,0.01667060889303684235 ,0.12355577200651168823 ,1.39544522762298583984 ,-0.47425284981727600098 ,0.36202374100685119629 ,0.73205256462097167969 ,0.37726253271102905273 ,0.26132556796073913574 ,0.18789878487586975098 ,0.83795076608657836914 ,2.72018933296203613281 ,1.10575950145721435547 ,-0.39862626791000366211 ,-1.29285776615142822266 ,0.15509578585624694824 ,0.49208641052246093750 ,-0.65340226888656616211 ,-1.05986940860748291016 ,-0.18295903503894805908 ,-0.83331006765365600586 ,-0.03843818977475166321 ,0.31802704930305480957 ,0.64288288354873657227 ,-0.41605019569396972656 ,-5.81459951400756835938 ,0.70242404937744140625 ,-0.55627512931823730469 ,-1.19609522819519042969 ,0.30268919467926025391 ,0.65819686651229858398 ,0.16949139535427093506 ,-0.95758104324340820312 ,-0.85815644264221191406 ,-0.30599194765090942383 ,0.40501827001571655273 ,0.91350072622299194336 ,1.32599854469299316406 ,0.81343024969100952148 ,-5.50252294540405273438 ,2.57370972633361816406 ,1.10668337345123291016 ,-0.09009378403425216675 ,0.72109377384185791016 ,0.11289618909358978271 ,0.06066987663507461548 ,0.27048635482788085938 ,-0.45175081491470336914 ,-0.40654215216636657715 ,-0.85145890712738037109 ,-0.93092453479766845703 ,1.13316190242767333984 ,3.89459896087646484375 ,4.22073125839233398438 ,1.86287605762481689453 ,-1.87353229522705078125 ,0.32536849379539489746 ,1.16975569725036621094 ,-0.21064874529838562012 ,0.44673353433609008789 ,0.58113569021224975586 ,-0.10186611115932464600 ,0.54854154586791992188 ,-0.06479679793119430542 ,0.11139514297246932983 ,-0.63867163658142089844 ,6.67459487915039062500 ,1.96107637882232666016 ,2.30746555328369140625 ,0.19931153953075408936 ,0.61782342195510864258 ,0.15737883746623992920 ,0.20792250335216522217 ,-0.33334565162658691406 ,-0.07315216213464736938 ,0.71123349666595458984 ,-0.45195668935775756836 ,-0.16079904139041900635 ,0.57189422845840454102 ,-1.21865415573120117188 ,2.61180782318115234375 ,-1.34730076789855957031 ,0.00373759120702743530 ,0.67281842231750488281 ,0.01646097563207149506 ,0.28368207812309265137 ,0.11382497847080230713 ,0.51880371570587158203 ,0.32988679409027099609 ,0.18445366621017456055 ,-2.13306188583374023438 ,-0.80042171478271484375 ,0.54271727800369262695 ,-1.37207126617431640625 ,-0.32059726119041442871 ,-0.20510037243366241455 ,-0.26219016313552856445 ,1.47852241992950439453 ,0.71563905477523803711 ,-1.23128497600555419922 ,0.15704318881034851074 ,0.55962449312210083008 ,-1.34879672527313232422 ,-0.83917760848999023438 ,-6.29018735885620117188 ,-6.53809547424316406250 ,3.60852289199829101562 ,6.34535074234008789062 ,-0.04524049535393714905  },
 {0.00841281283646821976 ,-0.08556837588548660278 ,-0.13085782527923583984 ,0.37203106284141540527 ,-1.71297729015350341797 ,-2.96257853507995605469 ,-2.03459310531616210938 ,-2.80658054351806640625 ,-1.44611382484436035156 ,0.37766876816749572754 ,0.54415458440780639648 ,-1.10526037216186523438 ,-1.73380398750305175781 ,-0.15330716967582702637 ,0.36111667752265930176 ,0.50015956163406372070 ,-0.84859520196914672852 ,-0.77069979906082153320 ,-0.59613358974456787109 ,-1.72447955608367919922 ,0.34754970669746398926 ,1.63218629360198974609 ,1.66771304607391357422 ,3.07274985313415527344 ,0.24397167563438415527 ,-0.17363306879997253418 ,1.21557295322418212891 ,2.99098515510559082031 ,0.33512443304061889648 ,-3.36363363265991210938 ,-0.92787158489227294922 ,0.03553122282028198242 ,1.42928540706634521484 ,0.63968652486801147461 ,-0.62340217828750610352 ,0.68619835376739501953 ,0.25660264492034912109 ,1.21706891059875488281 ,1.58646237850189208984 ,1.93614685535430908203 ,2.98713707923889160156 ,1.18225264549255371094 ,-1.54565703868865966797 ,-1.87513959407806396484 ,1.86418175697326660156 ,0.18815405666828155518 ,0.98822283744812011719 ,0.55982512235641479492 ,-1.03844797611236572266 ,-0.22343099117279052734 ,0.19868603348731994629 ,1.09542429447174072266 ,0.90781301259994506836 ,0.80773115158081054688 ,-0.00388784776441752911 ,-0.11087458580732345581 ,0.30365595221519470215 ,1.55387771129608154297 ,1.05611157417297363281 ,-1.12701761722564697266 ,-0.90654706954956054688 ,-0.65089011192321777344 ,-0.65130603313446044922 ,-0.17835102975368499756 ,0.45798686146736145020 ,0.09952450543642044067 ,0.40546396374702453613 ,0.06891256570816040039 ,0.42536851763725280762 ,-2.47428917884826660156 ,-3.25280094146728515625 ,-0.82496958971023559570 ,-0.25468415021896362305 ,-1.17561352252960205078 ,-0.01260857656598091125 ,0.20291566848754882812 ,-0.72614830732345581055 ,-1.18471705913543701172 ,-0.73714339733123779297 ,0.15139147639274597168 ,-0.55099385976791381836 ,-1.58978259563446044922 ,0.24304014444351196289 ,-2.17393946647644042969 ,-3.60978817939758300781 ,-0.42632421851158142090 ,-0.64653074741363525391 ,-0.29652252793312072754 ,0.46895185112953186035 ,1.32513296604156494141 ,1.18800175189971923828 ,-0.43692639470100402832 ,-0.50463730096817016602 ,1.65769183635711669922 ,0.66048020124435424805 ,-1.30760836601257324219 ,-1.71943688392639160156 ,-2.36824440956115722656 ,-3.46617341041564941406 ,-0.89941179752349853516 ,-0.80916965007781982422 ,0.43789896368980407715 ,1.15412116050720214844 ,1.38081681728363037109 ,1.40114426612854003906 ,-0.27271002531051635742 ,0.60254311561584472656 ,1.02362036705017089844 ,0.03346759453415870667 ,-0.46701338887214660645 ,2.00520086288452148438 ,0.61140966415405273438 ,-3.44495391845703125000 ,-2.11995434761047363281 ,-1.20252132415771484375 ,-0.02683817967772483826 ,0.24557931721210479736 ,1.45739340782165527344 ,0.37613433599472045898 ,-1.27511000633239746094 ,-0.25773757696151733398 ,-0.13226403295993804932 ,-0.88528561592102050781 ,-0.48459687829017639160 ,0.48581549525260925293 ,-4.15049886703491210938 ,-3.01335000991821289062 ,0.07802695780992507935 ,0.12059073150157928467 ,-0.07215065509080886841 ,0.80925077199935913086 ,0.53363162279129028320 ,-0.59210962057113647461 ,-0.98553967475891113281 ,-0.86642050743103027344 ,-0.85131412744522094727 ,-0.68860113620758056641 ,-0.50973218679428100586 ,-0.13363692164421081543 ,-4.64838314056396484375 ,3.08292317390441894531 ,1.77890348434448242188 ,0.04481840506196022034 ,-0.34362876415252685547 ,0.67510199546813964844 ,-0.40884211659431457520 ,-0.20532485842704772949 ,0.04771343618631362915 ,1.00537836551666259766 ,1.08800828456878662109 ,0.69800090789794921875 ,1.21915936470031738281 ,3.87529730796813964844 ,6.17303037643432617188 ,0.06658925116062164307 ,2.51108407974243164062 ,-0.22205448150634765625 ,-0.19477896392345428467 ,0.35080599784851074219 ,0.28030544519424438477 ,0.97003811597824096680 ,1.29301154613494873047 ,1.86188697814941406250 ,1.20103251934051513672 ,0.71739780902862548828 ,1.26930379867553710938 ,7.17463636398315429688 ,4.28708553314208984375 ,-0.16651928424835205078 ,0.80303722620010375977 ,-2.73199629783630371094 ,-0.52420723438262939453 ,1.82052445411682128906 ,0.71333074569702148438 ,1.76556646823883056641 ,0.74488401412963867188 ,1.03881466388702392578 ,2.25964975357055664062 ,1.36392402648925781250 ,2.96015882492065429688 ,6.75447797775268554688 ,2.14002490043640136719 ,0.10978051275014877319 ,-7.45865058898925781250 ,-5.52103042602539062500 ,0.07999372482299804688 ,0.37516316771507263184 ,-0.12443897873163223267 ,1.02866184711456298828 ,0.19666680693626403809 ,0.22249145805835723877 ,-0.18240809440612792969 ,-1.33613371849060058594 ,-0.23800970613956451416 ,6.20056962966918945312 ,0.06075329706072807312  },
 {-0.01060812734067440033 ,0.62185275554656982422 ,0.90690016746520996094 ,2.00376176834106445312 ,-2.09847521781921386719 ,1.96510207653045654297 ,-2.91882371902465820312 ,-2.01811242103576660156 ,-3.12207388877868652344 ,0.30240139365196228027 ,-0.14833852648735046387 ,3.53234386444091796875 ,-1.52596449851989746094 ,-0.61513173580169677734 ,-2.14438748359680175781 ,-0.69005697965621948242 ,-0.32187414169311523438 ,-3.42553448677062988281 ,-3.01420807838439941406 ,0.38276085257530212402 ,-1.01858031749725341797 ,0.19470246136188507080 ,1.01121127605438232422 ,0.10592627525329589844 ,1.03732573986053466797 ,5.13408899307250976562 ,4.36025094985961914062 ,1.56048941612243652344 ,-2.41519927978515625000 ,-4.21693277359008789062 ,-1.54742932319641113281 ,-1.70020973682403564453 ,1.94380545616149902344 ,1.39923012256622314453 ,0.45539435744285583496 ,0.35181987285614013672 ,-0.42023390531539916992 ,-0.21639795601367950439 ,-0.08664554357528686523 ,-1.02022039890289306641 ,1.42624032497406005859 ,2.44029092788696289062 ,6.39586496353149414062 ,0.81918001174926757812 ,0.56113380193710327148 ,0.47408065199851989746 ,1.10419499874114990234 ,-0.29380679130554199219 ,-0.23338136076927185059 ,0.08774901926517486572 ,-0.07218357920646667480 ,0.57648521661758422852 ,0.80141842365264892578 ,0.18415018916130065918 ,-0.81528013944625854492 ,-1.86170351505279541016 ,4.84233093261718750000 ,1.02568101882934570312 ,0.51277804374694824219 ,0.32667842507362365723 ,0.02527695707976818085 ,0.14708475768566131592 ,-0.89654016494750976562 ,-0.17920422554016113281 ,-0.18888384103775024414 ,-0.00196095113642513752 ,1.20869469642639160156 ,-0.32907611131668090820 ,-0.21454977989196777344 ,0.57582670450210571289 ,1.20902466773986816406 ,-0.52223724126815795898 ,-1.51228129863739013672 ,-0.48527958989143371582 ,1.94620192050933837891 ,1.13158273696899414062 ,-1.56692874431610107422 ,-0.90611821413040161133 ,-0.62603539228439331055 ,-0.90268170833587646484 ,-1.19394207000732421875 ,0.23617547750473022461 ,0.61940675973892211914 ,-2.28045487403869628906 ,3.93826341629028320312 ,2.87461829185485839844 ,-0.14410813152790069580 ,-0.30100050568580627441 ,1.03789913654327392578 ,0.65991920232772827148 ,-0.70635771751403808594 ,0.10712026804685592651 ,-0.52036929130554199219 ,0.23651480674743652344 ,-0.36438950896263122559 ,1.64221823215484619141 ,0.63846021890640258789 ,-8.12900257110595703125 ,-2.66590499877929687500 ,-0.42486509680747985840 ,-0.78746038675308227539 ,-0.87551665306091308594 ,1.20958483219146728516 ,1.79549646377563476562 ,0.78350383043289184570 ,0.18253231048583984375 ,-0.31010115146636962891 ,0.99105161428451538086 ,0.18293581902980804443 ,-0.58294022083282470703 ,0.50649231672286987305 ,-2.50792980194091796875 ,-1.87481105327606201172 ,-2.26379466056823730469 ,-1.32626032829284667969 ,-1.09890651702880859375 ,-0.26281547546386718750 ,2.27848386764526367188 ,0.86296290159225463867 ,0.38767966628074645996 ,1.42627537250518798828 ,0.54633456468582153320 ,-0.09226303547620773315 ,-2.40279436111450195312 ,0.00940441712737083435 ,0.59716230630874633789 ,1.90383768081665039062 ,-2.10516738891601562500 ,-0.90650171041488647461 ,-2.08548831939697265625 ,-0.37989351153373718262 ,1.59436881542205810547 ,0.76824557781219482422 ,-0.20317980647087097168 ,0.00965054892003536224 ,0.71578401327133178711 ,1.61523592472076416016 ,-0.65430802106857299805 ,-0.20066560804843902588 ,0.63074713945388793945 ,2.84374403953552246094 ,-3.08359885215759277344 ,-2.31992244720458984375 ,-1.90570282936096191406 ,-1.45709168910980224609 ,0.03585565090179443359 ,0.48497852683067321777 ,-0.30010494589805603027 ,0.96996581554412841797 ,-0.05767549946904182434 ,-0.25333467125892639160 ,-1.55298864841461181641 ,0.92909991741180419922 ,5.49846029281616210938 ,1.28817033767700195312 ,4.55708789825439453125 ,-0.18198885023593902588 ,-0.99706363677978515625 ,-0.86784410476684570312 ,-1.81075823307037353516 ,-0.71164774894714355469 ,0.64240294694900512695 ,1.16320323944091796875 ,-0.35861161351203918457 ,-0.15365570783615112305 ,-0.72814601659774780273 ,-0.66176950931549072266 ,5.18854475021362304688 ,0.40621545910835266113 ,2.39604401588439941406 ,-1.33009755611419677734 ,-0.48429957032203674316 ,0.65925526618957519531 ,-2.83923316001892089844 ,0.00963920075446367264 ,0.91377002000808715820 ,0.08563670516014099121 ,1.02699708938598632812 ,0.09896237403154373169 ,-0.12350410968065261841 ,3.11257696151733398438 ,-0.28077200055122375488 ,0.10919960588216781616 ,3.15097165107727050781 ,1.78344964981079101562 ,0.34543135762214660645 ,3.66291093826293945312 ,-1.06767845153808593750 ,-2.57947397232055664062 ,-0.73514401912689208984 ,-1.37766098976135253906 ,2.52043795585632324219 ,0.11163789033889770508 ,2.35906171798706054688 ,5.17229461669921875000 ,-0.53059297800064086914  },
 {0.06975137442350387573 ,0.08862053602933883667 ,0.11366178840398788452 ,-0.07197576016187667847 ,-1.45871829986572265625 ,-2.75436568260192871094 ,-3.94543790817260742188 ,0.39730969071388244629 ,5.36769437789916992188 ,2.76621794700622558594 ,1.48080134391784667969 ,1.36298716068267822266 ,-1.28285479545593261719 ,-0.36726951599121093750 ,-0.50937509536743164062 ,-0.43176752328872680664 ,0.79206550121307373047 ,-0.27361804246902465820 ,2.18288326263427734375 ,-0.18821322917938232422 ,0.13493932783603668213 ,1.11258542537689208984 ,1.51341295242309570312 ,4.61419630050659179688 ,-1.64290404319763183594 ,-0.69487005472183227539 ,2.77464580535888671875 ,-0.26904183626174926758 ,0.48396638035774230957 ,0.36302772164344787598 ,1.54080367088317871094 ,-1.62137293815612792969 ,-2.57945299148559570312 ,-0.29531547427177429199 ,-0.87776952981948852539 ,-0.20405222475528717041 ,0.58794075250625610352 ,1.13008654117584228516 ,0.99800533056259155273 ,0.62918674945831298828 ,5.16092014312744140625 ,6.11866044998168945312 ,-1.39388501644134521484 ,0.47474125027656555176 ,-1.59087955951690673828 ,-2.63847470283508300781 ,-1.95207619667053222656 ,0.55407768487930297852 ,0.87968826293945312500 ,0.55221211910247802734 ,0.97049909830093383789 ,-0.35358586907386779785 ,0.51394742727279663086 ,-0.83466345071792602539 ,2.31071567535400390625 ,6.36956644058227539062 ,-5.44967174530029296875 ,-3.07002496719360351562 ,-0.19355092942714691162 ,0.77612406015396118164 ,0.97621041536331176758 ,1.17914497852325439453 ,-0.72499918937683105469 ,-0.93547052145004272461 ,-0.66429513692855834961 ,-0.83263987302780151367 ,-0.12321382015943527222 ,-1.29842281341552734375 ,0.80142182111740112305 ,4.08739662170410156250 ,0.04140830412507057190 ,-1.59351849555969238281 ,-0.50654470920562744141 ,0.81379306316375732422 ,0.52253276109695434570 ,-0.39704754948616027832 ,0.14621432125568389893 ,0.48351770639419555664 ,0.02786226384341716766 ,0.01387290842831134796 ,-0.87332737445831298828 ,-0.75185722112655639648 ,1.06077599525451660156 ,0.13524767756462097168 ,0.16448022425174713135 ,-1.22332453727722167969 ,-2.75979971885681152344 ,-0.78126543760299682617 ,0.26043629646301269531 ,0.09439437091350555420 ,2.13362097740173339844 ,0.94449579715728759766 ,-0.88312691450119018555 ,-0.67444795370101928711 ,-1.50187921524047851562 ,-2.39997363090515136719 ,-0.28263801336288452148 ,4.49165678024291992188 ,0.09034714102745056152 ,-1.17295503616333007812 ,-2.37422180175781250000 ,-1.13720393180847167969 ,-0.65448069572448730469 ,0.12094064801931381226 ,0.74169337749481201172 ,-1.05498790740966796875 ,0.21210348606109619141 ,0.83443534374237060547 ,0.82643216848373413086 ,-0.19934193789958953857 ,1.90063571929931640625 ,0.35758161544799804688 ,-0.03819197416305541992 ,1.56123173236846923828 ,-0.71710562705993652344 ,-0.90906375646591186523 ,-1.61747241020202636719 ,-0.16987577080726623535 ,-0.14570331573486328125 ,-1.01636278629302978516 ,0.23278842866420745850 ,0.61866718530654907227 ,1.21836435794830322266 ,0.53556013107299804688 ,0.25438773632049560547 ,-2.25634527206420898438 ,-1.15496563911437988281 ,1.50092947483062744141 ,1.79868507385253906250 ,0.40307575464248657227 ,-0.35898220539093017578 ,-2.66010689735412597656 ,-1.62475585937500000000 ,-0.22468218207359313965 ,1.56639194488525390625 ,0.89515012502670288086 ,1.43134260177612304688 ,0.44760262966156005859 ,-1.99421525001525878906 ,-4.93454551696777343750 ,0.93931061029434204102 ,0.80231684446334838867 ,2.89318299293518066406 ,1.96915745735168457031 ,0.74975913763046264648 ,-0.19889301061630249023 ,0.71200489997863769531 ,0.23617652058601379395 ,0.95766568183898925781 ,0.59150999784469604492 ,0.30557048320770263672 ,-0.80423617362976074219 ,0.61844849586486816406 ,1.64133524894714355469 ,-2.93647861480712890625 ,3.35308647155761718750 ,2.29245305061340332031 ,2.60118436813354492188 ,1.21760976314544677734 ,1.64311432838439941406 ,1.00965774059295654297 ,-0.45172744989395141602 ,-0.84357208013534545898 ,-1.69453322887420654297 ,-2.90143322944641113281 ,-6.26612567901611328125 ,-2.37422013282775878906 ,-0.51579380035400390625 ,-1.81184804439544677734 ,1.12433195114135742188 ,-0.85847079753875732422 ,1.20825469493865966797 ,1.13317286968231201172 ,0.93495714664459228516 ,0.45723897218704223633 ,-0.48978570103645324707 ,-0.20447643101215362549 ,-1.46367609500885009766 ,-1.79495716094970703125 ,3.87362480163574218750 ,-0.54087239503860473633 ,-0.20108804106712341309 ,0.12152361869812011719 ,-5.42047929763793945312 ,-2.26653218269348144531 ,0.57803452014923095703 ,-1.19201815128326416016 ,0.40252414345741271973 ,0.60095608234405517578 ,0.31119287014007568359 ,0.34277597069740295410 ,0.25825166702270507812 ,-1.02851128578186035156 ,3.28709840774536132812 ,-1.41008901596069335938 ,-0.04254403710365295410  },
 {-0.07653293013572692871 ,0.09783753007650375366 ,-0.23983599245548248291 ,2.66544818878173828125 ,0.03870587050914764404 ,-3.25728917121887207031 ,-6.85130834579467773438 ,-8.92298030853271484375 ,0.21269509196281433105 ,-2.99112987518310546875 ,-7.66834592819213867188 ,-2.98947548866271972656 ,-1.59286034107208251953 ,-0.21102565526962280273 ,1.46190536022186279297 ,0.85589140653610229492 ,-8.07310199737548828125 ,-5.57413625717163085938 ,-1.63552010059356689453 ,-2.63659548759460449219 ,-4.97481822967529296875 ,-2.23915910720825195312 ,-0.73782098293304443359 ,1.04856061935424804688 ,0.13154596090316772461 ,2.31573367118835449219 ,-3.73769021034240722656 ,-2.97930574417114257812 ,2.31708526611328125000 ,-6.37510347366333007812 ,-0.78988361358642578125 ,-1.48769962787628173828 ,-1.61197745800018310547 ,0.00181965238880366087 ,-0.00753325456753373146 ,-0.20107904076576232910 ,-0.20748695731163024902 ,-0.77522313594818115234 ,-1.14619982242584228516 ,0.63222485780715942383 ,-2.03523254394531250000 ,0.55885255336761474609 ,1.75996720790863037109 ,-2.71673560142517089844 ,1.29837095737457275391 ,0.50194448232650756836 ,-0.80959320068359375000 ,1.14222145080566406250 ,0.28239530324935913086 ,-0.43461638689041137695 ,0.20203810930252075195 ,-0.11097603291273117065 ,-0.81890469789505004883 ,-0.74620068073272705078 ,-0.44034174084663391113 ,-2.21257877349853515625 ,4.35772085189819335938 ,0.01129967905580997467 ,0.17935463786125183105 ,0.50102752447128295898 ,0.30758565664291381836 ,0.35911896824836730957 ,0.06752610206604003906 ,0.22774249315261840820 ,2.18780207633972167969 ,1.06158828735351562500 ,-0.69683641195297241211 ,-0.87832373380661010742 ,-1.91270351409912109375 ,0.43658787012100219727 ,5.96491670608520507812 ,-0.00474008219316601753 ,-0.68387657403945922852 ,0.96209353208541870117 ,-0.03666740283370018005 ,0.32748520374298095703 ,-0.28439438343048095703 ,-0.14252187311649322510 ,1.68196821212768554688 ,0.80057549476623535156 ,0.46533995866775512695 ,1.26521718502044677734 ,-0.44574213027954101562 ,1.94997680187225341797 ,4.84449005126953125000 ,5.80409908294677734375 ,2.29277324676513671875 ,1.64427924156188964844 ,0.81084227561950683594 ,0.38823106884956359863 ,0.24287277460098266602 ,-0.33302268385887145996 ,0.95851588249206542969 ,0.00045870477333664894 ,-0.49407082796096801758 ,-0.04547815397381782532 ,-0.30784031748771667480 ,1.20008313655853271484 ,0.28190201520919799805 ,0.50216209888458251953 ,0.48325270414352416992 ,0.73411113023757934570 ,0.85518336296081542969 ,0.39010399580001831055 ,0.40211665630340576172 ,-0.41538226604461669922 ,0.90001052618026733398 ,-0.39904353022575378418 ,-0.20897433161735534668 ,-0.75655144453048706055 ,-0.33392679691314697266 ,-0.06492561101913452148 ,-0.14264009892940521240 ,-0.96521693468093872070 ,-1.67709100246429443359 ,-1.19890964031219482422 ,-0.66436588764190673828 ,0.73782217502593994141 ,1.41165924072265625000 ,-0.03381773084402084351 ,0.21277840435504913330 ,-0.06378136575222015381 ,0.03578109666705131531 ,0.35558763146400451660 ,-0.15144145488739013672 ,-0.38004007935523986816 ,2.67781209945678710938 ,0.01392255444079637527 ,-1.63677871227264404297 ,-1.41347956657409667969 ,-0.76670044660568237305 ,-0.33996751904487609863 ,0.61573868989944458008 ,-0.37415593862533569336 ,0.33971235156059265137 ,0.20345823466777801514 ,-0.57200908660888671875 ,-0.02634864859282970428 ,0.49482956528663635254 ,-5.24687290191650390625 ,2.19450664520263671875 ,1.59345579147338867188 ,0.39440608024597167969 ,0.14624106884002685547 ,-0.32932198047637939453 ,-1.32070851325988769531 ,-0.90574973821640014648 ,-0.73907929658889770508 ,0.20958457887172698975 ,0.33324369788169860840 ,-0.32299765944480895996 ,-0.58860647678375244141 ,1.63212704658508300781 ,-4.08597707748413085938 ,-0.12053908407688140869 ,0.75198829174041748047 ,1.63715374469757080078 ,0.71529060602188110352 ,-0.38822504878044128418 ,0.61982643604278564453 ,-0.27856183052062988281 ,-0.05084968358278274536 ,0.17508165538311004639 ,0.47923514246940612793 ,-0.61107069253921508789 ,1.77188861370086669922 ,1.31109738349914550781 ,3.55304932594299316406 ,0.60318982601165771484 ,0.62551355361938476562 ,2.95360469818115234375 ,1.37701666355133056641 ,1.90485036373138427734 ,1.73809063434600830078 ,1.40193521976470947266 ,-0.19604618847370147705 ,-0.89870387315750122070 ,0.11227346211671829224 ,-0.44502171874046325684 ,1.48531210422515869141 ,0.07514408975839614868 ,-1.32000136375427246094 ,-0.01591620035469532013 ,1.33099246025085449219 ,3.65845417976379394531 ,1.04650521278381347656 ,3.71334266662597656250 ,0.50606137514114379883 ,-1.26014220714569091797 ,0.58327341079711914062 ,2.55526018142700195312 ,3.55914378166198730469 ,1.69785404205322265625 ,0.78564983606338500977 ,-0.88545858860015869141 ,-0.64822614192962646484  },
 {0.04766279458999633789 ,-0.34167638421058654785 ,-0.47065469622611999512 ,-0.77965998649597167969 ,1.81312441825866699219 ,2.56870245933532714844 ,4.82174491882324218750 ,0.97677189111709594727 ,-2.18072056770324707031 ,-1.04963278770446777344 ,3.40409994125366210938 ,2.09473299980163574219 ,0.62238281965255737305 ,0.00415146537125110626 ,-0.86486625671386718750 ,-2.86749291419982910156 ,-0.13098625838756561279 ,2.42162609100341796875 ,2.47460174560546875000 ,-1.91633284091949462891 ,-2.27698636054992675781 ,1.03439044952392578125 ,0.58950227499008178711 ,-1.69229304790496826172 ,-1.77440524101257324219 ,1.80382370948791503906 ,1.64513278007507324219 ,-1.73830425739288330078 ,-1.64258134365081787109 ,-0.66600126028060913086 ,-2.74972367286682128906 ,-0.68527364730834960938 ,-0.65982967615127563477 ,-0.64196658134460449219 ,-0.26931157708168029785 ,-0.85302019119262695312 ,-1.05582666397094726562 ,-0.30501487851142883301 ,0.05416019260883331299 ,1.56709849834442138672 ,0.23605766892433166504 ,2.15152931213378906250 ,-1.22151076793670654297 ,1.97420573234558105469 ,-0.84475016593933105469 ,-0.40070044994354248047 ,0.22627857327461242676 ,0.46913039684295654297 ,0.25553229451179504395 ,-0.36083453893661499023 ,0.52269822359085083008 ,0.69877421855926513672 ,-0.32805132865905761719 ,-0.49083516001701354980 ,-0.11892639100551605225 ,1.22819602489471435547 ,-0.53416371345520019531 ,0.82130628824234008789 ,0.08252961188554763794 ,0.96856802701950073242 ,0.86483341455459594727 ,0.46605405211448669434 ,-0.89564222097396850586 ,-2.00006127357482910156 ,0.04792568087577819824 ,1.52552354335784912109 ,1.46378958225250244141 ,0.80960309505462646484 ,-1.16717660427093505859 ,0.44343832135200500488 ,0.74432873725891113281 ,0.90291273593902587891 ,0.10654959827661514282 ,0.83594065904617309570 ,0.30320170521736145020 ,-0.29925787448883056641 ,-1.84560966491699218750 ,-1.10961127281188964844 ,1.98243176937103271484 ,2.00231647491455078125 ,2.67233705520629882812 ,-0.58653926849365234375 ,-4.34686040878295898438 ,1.34205210208892822266 ,1.28842198848724365234 ,-0.17954084277153015137 ,0.46667659282684326172 ,-0.58977651596069335938 ,-0.48263245820999145508 ,0.04116171598434448242 ,-0.74393981695175170898 ,1.50256156921386718750 ,2.65993499755859375000 ,1.69105708599090576172 ,0.89533776044845581055 ,-0.47914245724678039551 ,-4.20425653457641601562 ,0.13862998783588409424 ,-1.39272332191467285156 ,0.09602494537830352783 ,-0.74256283044815063477 ,-0.86084032058715820312 ,-0.35552212595939636230 ,-0.31878346204757690430 ,0.33404970169067382812 ,1.60880219936370849609 ,0.39299342036247253418 ,-0.09079668670892715454 ,-0.08241590112447738647 ,-1.11427891254425048828 ,-0.66833460330963134766 ,2.16695594787597656250 ,4.83972835540771484375 ,0.63853561878204345703 ,-0.28698146343231201172 ,-0.42012572288513183594 ,-1.06326246261596679688 ,0.15149760246276855469 ,1.73811089992523193359 ,0.71631944179534912109 ,-0.33223697543144226074 ,-1.06954681873321533203 ,-0.75564706325531005859 ,-0.76354694366455078125 ,0.83660292625427246094 ,-2.66868829727172851562 ,4.41901874542236328125 ,-0.00418183766305446625 ,-0.48169106245040893555 ,0.28949132561683654785 ,-0.81362253427505493164 ,-0.76254135370254516602 ,0.52993142604827880859 ,0.50037235021591186523 ,0.16577357053756713867 ,-0.49144855141639709473 ,0.07938718795776367188 ,-0.82050824165344238281 ,-1.31592178344726562500 ,0.88771671056747436523 ,0.58566153049468994141 ,1.91984140872955322266 ,-0.29279229044914245605 ,0.08239591866731643677 ,-0.03210335969924926758 ,-0.50611078739166259766 ,0.23159573972225189209 ,0.86488664150238037109 ,-0.40013620257377624512 ,-0.53040993213653564453 ,0.22921283543109893799 ,-0.45132204890251159668 ,-2.59956240653991699219 ,-1.49838805198669433594 ,3.95010113716125488281 ,-0.57851839065551757812 ,-0.53732609748840332031 ,-0.64408117532730102539 ,-0.51975160837173461914 ,-0.06602645665407180786 ,-0.05028027668595314026 ,0.15372383594512939453 ,-0.73239529132843017578 ,0.12044940888881683350 ,0.13936042785644531250 ,1.21332049369812011719 ,1.64870405197143554688 ,-0.81871706247329711914 ,1.55578541755676269531 ,-0.94662386178970336914 ,1.92420899868011474609 ,0.79502350091934204102 ,-1.01169908046722412109 ,-1.57226622104644775391 ,-0.61424463987350463867 ,-0.03549844026565551758 ,-1.56358003616333007812 ,0.06140753254294395447 ,-0.93515568971633911133 ,1.12278199195861816406 ,3.34344959259033203125 ,0.16552324593067169189 ,0.05277154222130775452 ,-0.21699225902557373047 ,2.03523588180541992188 ,1.40307283401489257812 ,1.19862651824951171875 ,-0.79184269905090332031 ,-1.32856607437133789062 ,-1.10554707050323486328 ,-2.31239295005798339844 ,-0.43319350481033325195 ,1.10784149169921875000 ,-1.21211910247802734375 ,-2.01834797859191894531 ,0.04292226210236549377  },
 {-0.00955515261739492416 ,-0.16066363453865051270 ,0.48958042263984680176 ,1.94384205341339111328 ,2.87034988403320312500 ,4.75235986709594726562 ,4.42111968994140625000 ,8.82192897796630859375 ,8.14924716949462890625 ,1.69456672668457031250 ,0.13657079637050628662 ,3.83589816093444824219 ,1.03731834888458251953 ,-0.20522989332675933838 ,-1.01074469089508056641 ,-2.16917467117309570312 ,0.90261000394821166992 ,-0.17556363344192504883 ,-1.21677553653717041016 ,0.80270451307296752930 ,0.09591510146856307983 ,-1.31380581855773925781 ,1.85223841667175292969 ,0.47961941361427307129 ,-1.53373754024505615234 ,-0.04410579428076744080 ,0.62757319211959838867 ,1.14206242561340332031 ,-1.00746667385101318359 ,-1.25510704517364501953 ,1.95903241634368896484 ,0.71349167823791503906 ,1.78609967231750488281 ,1.63666367530822753906 ,-0.05100256949663162231 ,-0.88193148374557495117 ,0.84719890356063842773 ,1.40647912025451660156 ,-0.75948488712310791016 ,1.07589328289031982422 ,0.94836586713790893555 ,-3.32958579063415527344 ,4.50925636291503906250 ,1.05932676792144775391 ,0.26702979207038879395 ,0.88340640068054199219 ,1.43743717670440673828 ,-0.03766959905624389648 ,-1.15425813198089599609 ,0.20601543784141540527 ,0.42438465356826782227 ,-0.29243692755699157715 ,-0.16884534060955047607 ,-0.01313856989145278931 ,-2.05502748489379882812 ,-5.56291580200195312500 ,-3.40814137458801269531 ,-0.92436033487319946289 ,0.20754271745681762695 ,0.80337488651275634766 ,1.91229569911956787109 ,0.63514435291290283203 ,-3.05689477920532226562 ,-0.31805971264839172363 ,-1.14541637897491455078 ,-1.72249162197113037109 ,-0.52640974521636962891 ,-2.43597793579101562500 ,-3.61456203460693359375 ,-6.15502119064331054688 ,-2.86938881874084472656 ,-1.98872113227844238281 ,-0.16655772924423217773 ,-0.01497544255107641220 ,1.33465540409088134766 ,0.83976531028747558594 ,-2.09638071060180664062 ,0.27857688069343566895 ,0.43403404951095581055 ,0.68566715717315673828 ,0.26529142260551452637 ,-0.56102919578552246094 ,1.00947213172912597656 ,1.05802607536315917969 ,6.28979206085205078125 ,0.01119155902415513992 ,0.17764741182327270508 ,0.13182321190834045410 ,0.67287075519561767578 ,0.14904898405075073242 ,-1.29408776760101318359 ,0.20219704508781433105 ,0.61368948221206665039 ,1.41900157928466796875 ,0.81571602821350097656 ,1.21898543834686279297 ,1.19069218635559082031 ,3.85996317863464355469 ,-0.73061347007751464844 ,-0.76784539222717285156 ,1.35313057899475097656 ,0.40039736032485961914 ,0.81517356634140014648 ,1.02434122562408447266 ,-0.08429929614067077637 ,-0.01961559616029262543 ,-0.14950756728649139404 ,0.65591716766357421875 ,0.10244967788457870483 ,-0.20668491721153259277 ,-1.84982419013977050781 ,-1.93687486648559570312 ,-3.65769410133361816406 ,1.04979884624481201172 ,-0.53888046741485595703 ,-1.11571860313415527344 ,-0.94985365867614746094 ,-0.18520164489746093750 ,-0.27027356624603271484 ,0.52267527580261230469 ,1.19499659538269042969 ,-0.20235848426818847656 ,0.25803855061531066895 ,-0.77834475040435791016 ,-0.33490261435508728027 ,2.64007520675659179688 ,-1.23299598693847656250 ,3.53705215454101562500 ,0.37373471260070800781 ,-0.77029144763946533203 ,-0.40579253435134887695 ,-0.59973967075347900391 ,-0.21481575071811676025 ,1.25933861732482910156 ,-0.49565324187278747559 ,-0.43618652224540710449 ,-1.19459736347198486328 ,-0.45735028386116027832 ,-0.33124765753746032715 ,4.42614269256591796875 ,-2.22215032577514648438 ,1.16403114795684814453 ,0.23811224102973937988 ,-1.12006819248199462891 ,0.25102385878562927246 ,-0.14165911078453063965 ,0.97141337394714355469 ,1.12573170661926269531 ,0.21805739402770996094 ,-0.30414688587188720703 ,-0.93163663148880004883 ,0.44644531607627868652 ,-0.50905358791351318359 ,2.23983931541442871094 ,-1.73912811279296875000 ,-0.16866555809974670410 ,-0.04290129244327545166 ,-1.43901479244232177734 ,0.78885811567306518555 ,-0.95443874597549438477 ,0.03185740485787391663 ,0.12560674548149108887 ,0.57515060901641845703 ,-0.89545857906341552734 ,-0.53147548437118530273 ,0.46737453341484069824 ,-0.36609303951263427734 ,1.58460092544555664062 ,2.25044369697570800781 ,0.12470958381891250610 ,0.91810798645019531250 ,-2.09331679344177246094 ,0.84123408794403076172 ,-1.35101151466369628906 ,-1.59642052650451660156 ,-0.06527402997016906738 ,0.24412861466407775879 ,0.28765490651130676270 ,3.12376475334167480469 ,3.59384703636169433594 ,-1.95374453067779541016 ,1.51537573337554931641 ,-0.15655559301376342773 ,4.40646171569824218750 ,4.29891061782836914062 ,-0.03279393538832664490 ,1.44935619831085205078 ,1.14295065402984619141 ,0.78249907493591308594 ,3.59300994873046875000 ,1.32851207256317138672 ,1.83937919139862060547 ,-0.16280952095985412598 ,2.75794029235839843750 ,1.99609661102294921875 ,-0.14585947990417480469  },
 {0.05796559900045394897 ,0.26879808306694030762 ,0.56085878610610961914 ,0.46016404032707214355 ,-4.15743827819824218750 ,-9.69159412384033203125 ,2.27250719070434570312 ,0.85654199123382568359 ,1.97717595100402832031 ,4.24895906448364257812 ,2.05878996849060058594 ,-2.97884297370910644531 ,-0.52154850959777832031 ,-0.10447515547275543213 ,0.13054363429546356201 ,-0.77187967300415039062 ,-1.38319098949432373047 ,2.18888926506042480469 ,7.30716228485107421875 ,1.20793294906616210938 ,0.65773111581802368164 ,1.50406134128570556641 ,0.88767111301422119141 ,0.34929692745208740234 ,-0.18306654691696166992 ,-0.14966392517089843750 ,2.35964059829711914062 ,1.26400983333587646484 ,0.43130722641944885254 ,-2.00632739067077636719 ,3.37398123741149902344 ,0.72769898176193237305 ,-0.34686291217803955078 ,-1.91850328445434570312 ,-0.86954766511917114258 ,0.81086379289627075195 ,-0.33712732791900634766 ,-0.56651741266250610352 ,1.21490275859832763672 ,0.87477850914001464844 ,0.68848234415054321289 ,0.60567623376846313477 ,5.32677268981933593750 ,-1.81470537185668945312 ,0.78101313114166259766 ,1.37568688392639160156 ,-1.08098733425140380859 ,-0.92675733566284179688 ,-0.69483304023742675781 ,0.52153348922729492188 ,0.69861149787902832031 ,0.24298779666423797607 ,0.32182157039642333984 ,-2.17222213745117187500 ,-1.10081958770751953125 ,0.13511364161968231201 ,2.98854780197143554688 ,-1.34095895290374755859 ,-0.14791774749755859375 ,1.59020078182220458984 ,0.95862418413162231445 ,-0.65565967559814453125 ,-0.44662919640541076660 ,0.84137010574340820312 ,0.08578484505414962769 ,-0.40154007077217102051 ,-0.68554496765136718750 ,0.30795755982398986816 ,2.00505685806274414062 ,-0.22798241674900054932 ,-0.69695776700973510742 ,-0.86289602518081665039 ,-1.15884828567504882812 ,-0.84364914894104003906 ,0.60155063867568969727 ,0.76053136587142944336 ,-1.33334445953369140625 ,-0.24611623585224151611 ,-0.33176344633102416992 ,-0.45938855409622192383 ,-0.66552424430847167969 ,0.02021827735006809235 ,4.24872970581054687500 ,-2.02277517318725585938 ,0.01604572869837284088 ,-0.52233022451400756836 ,0.25527328252792358398 ,-0.12537758052349090576 ,0.16549013555049896240 ,-0.37739533185958862305 ,-2.29192900657653808594 ,0.76970827579498291016 ,0.07382407039403915405 ,-0.04201227426528930664 ,-1.58607566356658935547 ,-1.01025617122650146484 ,-2.92856836318969726562 ,-2.46248459815979003906 ,3.26762294769287109375 ,-2.80462861061096191406 ,0.56367176771163940430 ,0.92418843507766723633 ,1.04009747505187988281 ,-1.07495713233947753906 ,-1.83128678798675537109 ,0.87043857574462890625 ,-0.82616961002349853516 ,-0.69380289316177368164 ,-0.34631431102752685547 ,0.64465343952178955078 ,2.10417389869689941406 ,2.52356505393981933594 ,2.10648250579833984375 ,0.56325250864028930664 ,0.37553921341896057129 ,1.60257983207702636719 ,1.23327088356018066406 ,-2.67650747299194335938 ,-1.59145045280456542969 ,2.12273049354553222656 ,0.40211877226829528809 ,-0.32782396674156188965 ,1.04984414577484130859 ,1.00560224056243896484 ,2.16031646728515625000 ,0.44269740581512451172 ,3.78348517417907714844 ,1.50907874107360839844 ,0.82255458831787109375 ,0.87579095363616943359 ,0.80288040637969970703 ,-2.32274317741394042969 ,-1.42891132831573486328 ,1.40111839771270751953 ,0.29629778861999511719 ,1.15833997726440429688 ,2.06080627441406250000 ,0.93441790342330932617 ,0.65399438142776489258 ,-3.47918009757995605469 ,-0.03364769369363784790 ,-0.12530978024005889893 ,0.94219923019409179688 ,0.21092474460601806641 ,0.01806595362722873688 ,-0.45156973600387573242 ,0.11343757808208465576 ,1.13703262805938720703 ,1.27812683582305908203 ,1.55519056320190429688 ,0.16218289732933044434 ,-0.75535291433334350586 ,-1.83811175823211669922 ,-2.80129122734069824219 ,-3.56628918647766113281 ,-3.60750246047973632812 ,2.66671037673950195312 ,-0.10201230645179748535 ,-1.81652200222015380859 ,-0.24836793541908264160 ,0.85800379514694213867 ,-0.02568545565009117126 ,0.54722875356674194336 ,0.57196956872940063477 ,0.13680915534496307373 ,0.06212654337286949158 ,-5.42967367172241210938 ,2.76757597923278808594 ,-0.99272233247756958008 ,-2.17215323448181152344 ,-1.14632785320281982422 ,1.54244053363800048828 ,-0.47465136647224426270 ,-0.27848413586616516113 ,-0.65107792615890502930 ,-0.19299276173114776611 ,-0.36210092902183532715 ,-0.02267312817275524139 ,-0.66607838869094848633 ,0.19653917849063873291 ,-6.70681858062744140625 ,-0.28410410881042480469 ,-0.57580375671386718750 ,-1.50162327289581298828 ,-1.58917367458343505859 ,6.52692461013793945312 ,3.95040106773376464844 ,-0.03944151103496551514 ,-0.30223253369331359863 ,-0.35099479556083679199 ,-0.80658078193664550781 ,0.94971996545791625977 ,-0.60591012239456176758 ,4.02150726318359375000 ,1.56238484382629394531 ,-0.15313144028186798096  },
 {0.03756821900606155396 ,-0.08266758918762207031 ,0.31074759364128112793 ,-0.46150997281074523926 ,0.39775395393371582031 ,0.29627376794815063477 ,-2.28673601150512695312 ,3.80032110214233398438 ,3.68650531768798828125 ,-5.36922597885131835938 ,-3.77848839759826660156 ,3.38608670234680175781 ,0.81054246425628662109 ,-0.07300236076116561890 ,-0.31795823574066162109 ,-0.92367619276046752930 ,3.27460336685180664062 ,3.79064035415649414062 ,0.68884903192520141602 ,0.61320745944976806641 ,0.58971536159515380859 ,1.10134983062744140625 ,-1.20787978172302246094 ,-0.91731297969818115234 ,-2.45538282394409179688 ,-3.74260377883911132812 ,-4.20612573623657226562 ,-2.88311100006103515625 ,-0.55513209104537963867 ,-1.83891344070434570312 ,-2.53474497795104980469 ,-0.00115624850150197744 ,0.23067797720432281494 ,0.96123993396759033203 ,0.52913039922714233398 ,-0.15012145042419433594 ,-0.23763203620910644531 ,1.51860272884368896484 ,-0.08903286606073379517 ,-0.83221316337585449219 ,-1.35782504081726074219 ,-3.82311987876892089844 ,-0.03184815123677253723 ,-1.36358094215393066406 ,-0.12176858633756637573 ,-0.32062178850173950195 ,1.41358327865600585938 ,1.07184863090515136719 ,0.19943037629127502441 ,0.30721089243888854980 ,0.13700924813747406006 ,0.02868085727095603943 ,0.42472931742668151855 ,-0.43329286575317382812 ,1.09017097949981689453 ,1.82541370391845703125 ,1.32648098468780517578 ,-1.97696888446807861328 ,-1.07960414886474609375 ,-0.35344448685646057129 ,-0.09167633205652236938 ,1.31297695636749267578 ,0.80917626619338989258 ,-0.71679890155792236328 ,0.11084852367639541626 ,0.63750714063644409180 ,0.07678136229515075684 ,-2.34300374984741210938 ,-0.04976912215352058411 ,-2.53988814353942871094 ,-3.66503214836120605469 ,-2.40983295440673828125 ,0.50392645597457885742 ,0.76400947570800781250 ,1.03998363018035888672 ,0.48811024427413940430 ,-1.21423709392547607422 ,-1.61722004413604736328 ,1.40574991703033447266 ,1.37438035011291503906 ,0.16850279271602630615 ,-0.80915772914886474609 ,1.12079811096191406250 ,-2.34944844245910644531 ,-6.19120073318481445312 ,-0.70597547292709350586 ,0.63331747055053710938 ,0.65509027242660522461 ,0.23554898798465728760 ,0.40365695953369140625 ,-1.21193861961364746094 ,-0.24934782087802886963 ,0.43350130319595336914 ,1.23084211349487304688 ,1.88925242424011230469 ,1.43415474891662597656 ,-0.99798429012298583984 ,-6.93111467361450195312 ,-3.59372782707214355469 ,-0.47944644093513488770 ,-1.45914852619171142578 ,-0.38129395246505737305 ,0.06173888221383094788 ,0.40771844983100891113 ,-0.06696095317602157593 ,-0.09651377797126770020 ,-1.57106959819793701172 ,-0.53058111667633056641 ,0.99666172266006469727 ,1.50318551063537597656 ,1.50978183746337890625 ,2.31721639633178710938 ,-2.60014510154724121094 ,-1.48974275588989257812 ,-0.01439956203103065491 ,0.12698462605476379395 ,-0.32071617245674133301 ,0.13883513212203979492 ,-0.37320062518119812012 ,0.03863269090652465820 ,-2.28233551979064941406 ,-1.28085243701934814453 ,0.48716089129447937012 ,0.62891638278961181641 ,0.86102402210235595703 ,6.53688526153564453125 ,-0.00268901279196143150 ,-0.91132164001464843750 ,0.79459279775619506836 ,1.41211962699890136719 ,0.83822441101074218750 ,0.58208751678466796875 ,0.18364079296588897705 ,-0.12780654430389404297 ,-1.53716862201690673828 ,-1.23523354530334472656 ,0.29383102059364318848 ,-0.94225233793258666992 ,-1.18890285491943359375 ,3.79223346710205078125 ,3.44112420082092285156 ,-0.40240362286567687988 ,-0.92364364862442016602 ,0.66255390644073486328 ,-0.31210547685623168945 ,-0.54494941234588623047 ,0.51031577587127685547 ,0.88131666183471679688 ,1.27065205574035644531 ,-0.70519614219665527344 ,-0.05849982053041458130 ,0.10529077053070068359 ,-1.20281350612640380859 ,2.32968807220458984375 ,2.52096533775329589844 ,4.53976106643676757812 ,0.62516576051712036133 ,-0.71384096145629882812 ,-0.90193194150924682617 ,-0.29982998967170715332 ,0.67719805240631103516 ,0.74288982152938842773 ,0.74540770053863525391 ,0.32773816585540771484 ,-0.15183499455451965332 ,0.27990517020225524902 ,1.94679093360900878906 ,-1.53187453746795654297 ,-1.52310824394226074219 ,3.01793098449707031250 ,1.52755796909332275391 ,-1.36812520027160644531 ,0.10475435853004455566 ,0.07660636305809020996 ,0.59711420536041259766 ,0.53467047214508056641 ,1.52076256275177001953 ,2.05712008476257324219 ,1.29963433742523193359 ,1.33028829097747802734 ,3.05897426605224609375 ,1.06705343723297119141 ,0.15716086328029632568 ,1.65045142173767089844 ,3.46753621101379394531 ,1.12050735950469970703 ,-1.12101435661315917969 ,0.48020759224891662598 ,-2.31111264228820800781 ,-1.46730077266693115234 ,-0.07438723742961883545 ,-0.54371601343154907227 ,-0.49605441093444824219 ,-0.72281277179718017578 ,4.20050668716430664062 ,0.35175275802612304688  },
 {0.04149915650486946106 ,-0.17611333727836608887 ,-0.42594194412231445312 ,2.95113372802734375000 ,0.92917090654373168945 ,1.76499700546264648438 ,0.32607144117355346680 ,-9.55085563659667968750 ,-2.20430612564086914062 ,-0.64405268430709838867 ,-6.36616325378417968750 ,-3.22598695755004882812 ,-1.54484045505523681641 ,-0.08141104131937026978 ,0.35940876603126525879 ,-2.33302998542785644531 ,-7.33063840866088867188 ,-2.79536223411560058594 ,-2.67853617668151855469 ,-0.36409753561019897461 ,0.18593315780162811279 ,0.97500675916671752930 ,-0.03931462019681930542 ,0.78077071905136108398 ,-1.65486025810241699219 ,-4.52549982070922851562 ,-8.06109333038330078125 ,-3.88621711730957031250 ,0.76078331470489501953 ,-4.60035896301269531250 ,-2.75702738761901855469 ,-1.39815521240234375000 ,0.98722165822982788086 ,-0.35463219881057739258 ,-2.69390606880187988281 ,-0.57766771316528320312 ,-0.59683436155319213867 ,0.05175039917230606079 ,-1.11355662345886230469 ,-0.89850854873657226562 ,-3.05011320114135742188 ,-0.03844434767961502075 ,4.49960947036743164062 ,0.44972151517868041992 ,0.10595551133155822754 ,-1.02508175373077392578 ,0.85215735435485839844 ,0.08098217099905014038 ,-0.49828192591667175293 ,0.84887641668319702148 ,0.22524616122245788574 ,0.25123205780982971191 ,-0.05718317627906799316 ,0.31982365250587463379 ,0.22342276573181152344 ,0.73145937919616699219 ,4.41378784179687500000 ,-1.31955933570861816406 ,-0.26548525691032409668 ,-0.90265214443206787109 ,0.03824485093355178833 ,-0.12269205600023269653 ,0.65040427446365356445 ,1.37718045711517333984 ,2.56919288635253906250 ,0.52983671426773071289 ,-1.00298094749450683594 ,-0.87290477752685546875 ,0.54357892274856567383 ,0.42879873514175415039 ,6.64999532699584960938 ,-0.77840840816497802734 ,-0.82142901420593261719 ,-0.01273735798895359039 ,0.21903491020202636719 ,0.02710750140249729156 ,-0.59402793645858764648 ,-0.49444302916526794434 ,1.63928127288818359375 ,0.92223352193832397461 ,-1.57939696311950683594 ,-1.80500066280364990234 ,-0.13811688125133514404 ,1.83387124538421630859 ,3.93830871582031250000 ,-0.22181001305580139160 ,-2.09579420089721679688 ,0.46067118644714355469 ,0.92528402805328369141 ,-0.80881136655807495117 ,-0.82385492324829101562 ,-0.67837804555892944336 ,1.24874603748321533203 ,0.04507073014974594116 ,-1.29384016990661621094 ,-0.34485206007957458496 ,0.83651596307754516602 ,1.23510825634002685547 ,1.04590117931365966797 ,1.29743194580078125000 ,0.09298938512802124023 ,0.41316026449203491211 ,0.68740624189376831055 ,0.12262529879808425903 ,-0.29182854294776916504 ,-0.06035199761390686035 ,1.34149551391601562500 ,0.14421173930168151855 ,0.17551454901695251465 ,0.34292966127395629883 ,2.17399120330810546875 ,0.68030744791030883789 ,-0.67845129966735839844 ,-1.44722223281860351562 ,1.54672658443450927734 ,1.24796509742736816406 ,0.50712060928344726562 ,0.85514771938323974609 ,-0.06462739408016204834 ,0.18580281734466552734 ,0.74843055009841918945 ,0.44250088930130004883 ,-0.05210481584072113037 ,-0.63122975826263427734 ,-0.02360485866665840149 ,1.15553998947143554688 ,1.84121441841125488281 ,-4.42984008789062500000 ,0.29520988464355468750 ,0.13020588457584381104 ,-0.44973134994506835938 ,-1.38855743408203125000 ,-0.24112592637538909912 ,-0.18322151899337768555 ,1.08619523048400878906 ,-0.20778487622737884521 ,0.16260287165641784668 ,0.17611369490623474121 ,-2.33441352844238281250 ,-2.32019042968750000000 ,2.33157920837402343750 ,-7.69361782073974609375 ,-3.17679286003112792969 ,-1.91386747360229492188 ,-1.15107166767120361328 ,-1.61936438083648681641 ,-0.24879252910614013672 ,-0.33720734715461730957 ,0.43015870451927185059 ,-0.40005058050155639648 ,0.50277596712112426758 ,-0.08621397614479064941 ,-2.01050066947937011719 ,0.94680255651473999023 ,-0.78039741516113281250 ,1.56784641742706298828 ,-1.50129878520965576172 ,-1.02133011817932128906 ,-1.30569529533386230469 ,-0.07414244860410690308 ,-0.91363978385925292969 ,0.14252860844135284424 ,0.37677544355392456055 ,-1.04753041267395019531 ,-0.86994910240173339844 ,-0.54367566108703613281 ,-5.00664281845092773438 ,-0.81881970167160034180 ,0.34086921811103820801 ,4.11338233947753906250 ,2.53407454490661621094 ,1.37477660179138183594 ,1.58898901939392089844 ,0.38049203157424926758 ,0.59243309497833251953 ,1.13908159732818603516 ,0.00011987732432316989 ,-0.12022490054368972778 ,-0.77906012535095214844 ,2.30699443817138671875 ,2.76107358932495117188 ,-1.73912847042083740234 ,0.01065049227327108383 ,1.95569014549255371094 ,1.19889056682586669922 ,0.67086327075958251953 ,2.58999347686767578125 ,-0.34504172205924987793 ,-1.75380671024322509766 ,0.10876949131488800049 ,0.76631379127502441406 ,0.08283895999193191528 ,-0.04235921055078506470 ,3.27121233940124511719 ,3.52201724052429199219 ,-0.37314084172248840332  },
 {0.02363170683383941650 ,-0.30121824145317077637 ,0.15113405883312225342 ,-0.52956199645996093750 ,1.72136235237121582031 ,1.40276443958282470703 ,3.45574498176574707031 ,6.79673910140991210938 ,4.32649135589599609375 ,0.97240924835205078125 ,-1.17441606521606445312 ,-1.20252919197082519531 ,-0.51745957136154174805 ,-0.21512001752853393555 ,0.34401607513427734375 ,-1.12466526031494140625 ,-0.58034908771514892578 ,-0.53489673137664794922 ,-1.71551167964935302734 ,-1.66951441764831542969 ,2.34698200225830078125 ,1.39548182487487792969 ,-1.60518014430999755859 ,-1.69242000579833984375 ,1.15157496929168701172 ,3.89112949371337890625 ,-0.02716982737183570862 ,-1.57394039630889892578 ,0.45121982693672180176 ,0.69096076488494873047 ,-0.71588796377182006836 ,0.31312817335128784180 ,0.65309375524520874023 ,-0.81997579336166381836 ,1.20240545272827148438 ,-0.12606614828109741211 ,-1.63839864730834960938 ,-2.04078817367553710938 ,-0.18780800700187683105 ,0.10532587766647338867 ,-1.46934914588928222656 ,0.75828838348388671875 ,-0.62752044200897216797 ,0.84906834363937377930 ,-3.88564157485961914062 ,-1.28965246677398681641 ,-0.56474339962005615234 ,0.10963022708892822266 ,1.08736562728881835938 ,-0.18260027468204498291 ,-0.74289757013320922852 ,0.14484763145446777344 ,0.08783111721277236938 ,0.17813889682292938232 ,0.18210986256599426270 ,-0.29868990182876586914 ,2.33585095405578613281 ,1.47319376468658447266 ,-1.87049245834350585938 ,-0.38133206963539123535 ,0.59109407663345336914 ,0.82876235246658325195 ,-0.15119697153568267822 ,0.19855718314647674561 ,-0.99157249927520751953 ,0.42687827348709106445 ,0.45915961265563964844 ,0.00550259603187441826 ,-0.42796626687049865723 ,0.39519110321998596191 ,3.62593722343444824219 ,-0.01608095318078994751 ,-0.77356857061386108398 ,0.14686648547649383545 ,0.24775968492031097412 ,-0.67318141460418701172 ,0.55062329769134521484 ,1.69425189495086669922 ,-0.19385650753974914551 ,1.10357046127319335938 ,0.87171125411987304688 ,-0.30877268314361572266 ,-2.23597168922424316406 ,0.95900487899780273438 ,4.35333490371704101562 ,1.61263549327850341797 ,0.10584699362516403198 ,-0.67700648307800292969 ,-0.53554713726043701172 ,-0.72302055358886718750 ,0.54763907194137573242 ,1.37145614624023437500 ,0.97420877218246459961 ,0.26697662472724914551 ,0.28937143087387084961 ,-0.03829161822795867920 ,-0.77033728361129760742 ,1.91123926639556884766 ,-0.58121299743652343750 ,2.94031167030334472656 ,-0.32665029168128967285 ,-1.21936762332916259766 ,0.52051746845245361328 ,1.27023339271545410156 ,0.30172753334045410156 ,-0.43079659342765808105 ,0.33438733220100402832 ,1.25950384140014648438 ,0.19028165936470031738 ,-0.55515378713607788086 ,-2.56255602836608886719 ,-0.26288208365440368652 ,2.59403681755065917969 ,0.12723471224308013916 ,0.97658449411392211914 ,-0.28172373771667480469 ,1.20354390144348144531 ,1.13480496406555175781 ,0.09423010051250457764 ,-0.48997446894645690918 ,-0.27274069190025329590 ,0.27648249268531799316 ,0.34407684206962585449 ,0.43092140555381774902 ,-0.10114385932683944702 ,-1.17935061454772949219 ,4.43949747085571289062 ,-0.97639995813369750977 ,-0.89997792243957519531 ,-0.95255261659622192383 ,-0.27741652727127075195 ,-1.38812434673309326172 ,-1.29091799259185791016 ,-0.25481349229812622070 ,-0.30969864130020141602 ,-0.82378858327865600586 ,-0.41951999068260192871 ,-0.39473402500152587891 ,-0.10188751667737960815 ,4.64448547363281250000 ,-1.11312401294708251953 ,0.19247920811176300049 ,0.60641491413116455078 ,-0.71234178543090820312 ,-0.14994731545448303223 ,0.26005360484123229980 ,-0.83067035675048828125 ,0.35218992829322814941 ,0.23379357159137725830 ,-0.14772053062915802002 ,0.90737456083297729492 ,-0.01980492100119590759 ,1.80377519130706787109 ,2.24570775032043457031 ,-3.00785946846008300781 ,-0.80285096168518066406 ,0.71954435110092163086 ,0.68933296203613281250 ,0.47308543324470520020 ,-1.06681120395660400391 ,-0.10477551817893981934 ,0.33853137493133544922 ,0.37457168102264404297 ,0.14431987702846527100 ,1.29399764537811279297 ,-0.02413344569504261017 ,-0.26229742169380187988 ,0.42288595438003540039 ,0.78353995084762573242 ,-2.44843983650207519531 ,0.44375997781753540039 ,1.58432316780090332031 ,0.78811246156692504883 ,-0.65657699108123779297 ,-0.83161866664886474609 ,-0.23643679916858673096 ,-0.49160018563270568848 ,0.08850282430648803711 ,-0.54736191034317016602 ,-1.41404509544372558594 ,-0.00715959072113037109 ,-1.71322607994079589844 ,0.07142670452594757080 ,1.70522582530975341797 ,-0.76078289747238159180 ,-0.38362231850624084473 ,2.78110241889953613281 ,-1.92955732345581054688 ,-1.27552747726440429688 ,1.31285297870635986328 ,-0.60496842861175537109 ,0.83553689718246459961 ,2.09317994117736816406 ,1.70477271080017089844 ,-3.45132398605346679688 ,-0.47174444794654846191  },
 {-0.05538855865597724915 ,0.00503271585330367088 ,0.25511491298675537109 ,0.76876014471054077148 ,3.75491666793823242188 ,2.88213086128234863281 ,-0.18236945569515228271 ,2.47328376770019531250 ,4.00522232055664062500 ,4.49293804168701171875 ,0.83039402961730957031 ,1.45513641834259033203 ,2.15301775932312011719 ,0.45475593209266662598 ,0.09645086526870727539 ,-1.47018015384674072266 ,-1.07395541667938232422 ,-0.07946173846721649170 ,1.41346430778503417969 ,-0.49870002269744873047 ,-1.87218749523162841797 ,-3.11787819862365722656 ,-0.69686597585678100586 ,-1.05944788455963134766 ,-0.87613928318023681641 ,-4.75300931930541992188 ,2.00470232963562011719 ,5.73067283630371093750 ,-1.15559196472167968750 ,2.11814188957214355469 ,-1.92966830730438232422 ,0.84612828493118286133 ,1.83623981475830078125 ,1.06001031398773193359 ,-0.47804585099220275879 ,-0.60223412513732910156 ,-0.25663703680038452148 ,-0.53047722578048706055 ,-0.75547230243682861328 ,-0.67150682210922241211 ,2.86816906929016113281 ,5.73769283294677734375 ,-0.35760506987571716309 ,2.63284635543823242188 ,-0.44463145732879638672 ,0.85912013053894042969 ,1.87956571578979492188 ,-0.79310077428817749023 ,0.11532045155763626099 ,0.85834854841232299805 ,-0.28958824276924133301 ,-1.98190903663635253906 ,-0.72224134206771850586 ,1.41067838668823242188 ,0.58148264884948730469 ,2.04187607765197753906 ,-1.94524502754211425781 ,1.75220131874084472656 ,2.14816379547119140625 ,0.06318359076976776123 ,0.45024040341377258301 ,0.34765973687171936035 ,0.26476263999938964844 ,0.53085732460021972656 ,-0.11887304484844207764 ,-0.85459065437316894531 ,-1.47830569744110107422 ,-0.14318554103374481201 ,0.52731162309646606445 ,4.96755218505859375000 ,-0.02113634534180164337 ,1.90377724170684814453 ,1.71088075637817382812 ,0.31906530261039733887 ,-0.23636776208877563477 ,0.28873428702354431152 ,-0.52256751060485839844 ,-0.51900446414947509766 ,1.15007185935974121094 ,-0.07394253462553024292 ,-1.44819760322570800781 ,-0.88521653413772583008 ,1.08018743991851806641 ,3.50969743728637695312 ,0.79989165067672729492 ,1.67384254932403564453 ,0.72181069850921630859 ,-0.34523269534111022949 ,-0.12297565490007400513 ,-0.71062242984771728516 ,-0.91016560792922973633 ,0.70804959535598754883 ,1.87773394584655761719 ,0.34009212255477905273 ,-0.25787842273712158203 ,0.63795197010040283203 ,-1.12004721164703369141 ,3.96855878829956054688 ,-2.34828495979309082031 ,-1.31583523750305175781 ,-2.49001431465148925781 ,0.09226758778095245361 ,-1.57853221893310546875 ,-0.44149279594421386719 ,1.01330494880676269531 ,1.33515846729278564453 ,0.70543247461318969727 ,-0.08929813653230667114 ,-0.17379425466060638428 ,0.67715007066726684570 ,2.48429560661315917969 ,4.15956926345825195312 ,4.21699047088623046875 ,3.39748978614807128906 ,-2.82154297828674316406 ,-1.67082047462463378906 ,-2.02374219894409179688 ,1.48328769207000732422 ,0.38870593905448913574 ,-0.06850378960371017456 ,-0.17543821036815643311 ,-1.34965956211090087891 ,-0.29788172245025634766 ,-1.52989411354064941406 ,1.11467695236206054688 ,-1.20024764537811279297 ,5.09572935104370117188 ,3.63031864166259765625 ,-1.41403484344482421875 ,-0.41938033699989318848 ,-1.05846428871154785156 ,1.13554728031158447266 ,1.16574418544769287109 ,-0.01038013957440853119 ,-0.42663657665252685547 ,0.29427704215049743652 ,-1.11438703536987304688 ,-1.66708624362945556641 ,-1.35214519500732421875 ,2.05939102172851562500 ,0.51473748683929443359 ,1.50294196605682373047 ,-2.93257188796997070312 ,-0.98357683420181274414 ,-0.37351053953170776367 ,0.99797475337982177734 ,0.60033833980560302734 ,0.01940553262829780579 ,0.35038119554519653320 ,0.22529235482215881348 ,-0.39688059687614440918 ,-1.49373996257781982422 ,0.31815510988235473633 ,6.89244031906127929688 ,-0.16269604861736297607 ,1.05389606952667236328 ,-1.77779245376586914062 ,-0.58730655908584594727 ,0.56712615489959716797 ,-0.19640022516250610352 ,0.96086072921752929688 ,1.05099749565124511719 ,0.10877535492181777954 ,-0.01756535656750202179 ,0.90582460165023803711 ,-0.14941518008708953857 ,1.69250690937042236328 ,2.14397287368774414062 ,-0.62390065193176269531 ,-1.47547399997711181641 ,-1.12824642658233642578 ,0.10663722455501556396 ,-1.71102201938629150391 ,-0.61856198310852050781 ,0.44565594196319580078 ,0.26468750834465026855 ,-0.17458499968051910400 ,-0.19429977238178253174 ,1.25809586048126220703 ,0.00358547549694776535 ,0.80915331840515136719 ,2.56766176223754882812 ,0.01394761726260185242 ,0.56871509552001953125 ,-0.84038281440734863281 ,0.98565286397933959961 ,-0.15395052731037139893 ,-0.22474621236324310303 ,-0.17910957336425781250 ,-2.03534913063049316406 ,-1.49243092536926269531 ,1.68868815898895263672 ,2.55144929885864257812 ,-4.26159667968750000000 ,-4.32706260681152343750 ,1.04360377788543701172  },
 {-0.06827516853809356689 ,0.05150713026523590088 ,0.01830947212874889374 ,0.36702385544776916504 ,4.10875558853149414062 ,4.75537776947021484375 ,7.18598175048828125000 ,10.78718280792236328125 ,5.29191780090332031250 ,0.72035944461822509766 ,-0.24827563762664794922 ,0.55689018964767456055 ,0.55207675695419311523 ,0.02037580870091915131 ,1.61776781082153320312 ,2.41692519187927246094 ,1.38254821300506591797 ,3.53896856307983398438 ,2.66778898239135742188 ,1.22374105453491210938 ,2.46349167823791503906 ,2.52071380615234375000 ,0.04571900889277458191 ,-2.61124801635742187500 ,-1.45365309715270996094 ,-0.69098848104476928711 ,-1.37333607673645019531 ,2.85830926895141601562 ,1.76061081886291503906 ,5.59038686752319335938 ,4.17051315307617187500 ,2.16629934310913085938 ,2.22192859649658203125 ,-0.89655780792236328125 ,0.53951102495193481445 ,1.22946786880493164062 ,-0.59742528200149536133 ,-0.86483901739120483398 ,-0.84041631221771240234 ,0.44163402915000915527 ,-1.18107235431671142578 ,2.89205336570739746094 ,1.76358270645141601562 ,3.82577776908874511719 ,0.96167999505996704102 ,-1.55755519866943359375 ,0.39679455757141113281 ,-0.76972001791000366211 ,-0.13037833571434020996 ,0.67969268560409545898 ,0.57694119215011596680 ,0.15889248251914978027 ,-0.03167228028178215027 ,-0.52953195571899414062 ,-3.24520254135131835938 ,3.48818159103393554688 ,3.82544636726379394531 ,-0.26337993144989013672 ,0.40234780311584472656 ,-0.37555381655693054199 ,-0.08407264947891235352 ,-0.06113122031092643738 ,0.11421985924243927002 ,2.60180687904357910156 ,1.87710666656494140625 ,0.29491135478019714355 ,-0.62131309509277343750 ,0.25452691316604614258 ,-1.42614960670471191406 ,-2.44268035888671875000 ,1.84418570995330810547 ,0.24360534548759460449 ,0.14807082712650299072 ,-0.06328468769788742065 ,0.51119500398635864258 ,0.54772454500198364258 ,-0.87624764442443847656 ,0.12769021093845367432 ,-0.44201436638832092285 ,0.43821737170219421387 ,0.11015571653842926025 ,-3.04865765571594238281 ,-1.13349175453186035156 ,-2.21145582199096679688 ,1.00972402095794677734 ,-0.92878198623657226562 ,-0.51512300968170166016 ,-0.44211325049400329590 ,-0.22216290235519409180 ,-0.66902518272399902344 ,-2.22820711135864257812 ,-0.81169456243515014648 ,0.30721840262413024902 ,1.43602144718170166016 ,-0.22122305631637573242 ,-2.32478213310241699219 ,-0.48352104425430297852 ,-2.79980874061584472656 ,3.13073587417602539062 ,0.30426433682441711426 ,-0.24735863506793975830 ,-0.54269510507583618164 ,-0.74174499511718750000 ,-0.02994426898658275604 ,-1.03037238121032714844 ,0.35543146729469299316 ,0.36748874187469482422 ,0.60730528831481933594 ,-0.49678564071655273438 ,1.21958720684051513672 ,0.75593972206115722656 ,-0.41986402869224548340 ,3.40763568878173828125 ,1.21906530857086181641 ,-0.62802112102508544922 ,-1.29815375804901123047 ,-0.18843658268451690674 ,0.13206674158573150635 ,-0.49864661693572998047 ,-1.09758603572845458984 ,-0.30361652374267578125 ,-0.82650732994079589844 ,-0.92144936323165893555 ,-1.43587803840637207031 ,-0.99057859182357788086 ,2.83558320999145507812 ,3.66506171226501464844 ,2.73523998260498046875 ,0.65946960449218750000 ,0.42221382260322570801 ,0.63845211267471313477 ,-0.19804438948631286621 ,0.61707568168640136719 ,-0.42527014017105102539 ,0.34385675191879272461 ,-1.00700283050537109375 ,-1.94711720943450927734 ,-2.05059099197387695312 ,-0.16289958357810974121 ,1.13240301609039306641 ,0.27258515357971191406 ,1.65474796295166015625 ,-0.85405260324478149414 ,0.23168593645095825195 ,1.02852952480316162109 ,0.92826056480407714844 ,1.24836754798889160156 ,0.35784894227981567383 ,0.24620538949966430664 ,0.25073418021202087402 ,-0.05413335934281349182 ,1.63332879543304443359 ,2.80703878402709960938 ,0.84138858318328857422 ,3.80450272560119628906 ,-0.02392678894102573395 ,0.17309591174125671387 ,0.87466037273406982422 ,0.92116236686706542969 ,0.78117108345031738281 ,0.58755618333816528320 ,-0.35968306660652160645 ,0.23747834563255310059 ,-0.15548501908779144287 ,0.15434025228023529053 ,3.62203216552734375000 ,1.68712246417999267578 ,-1.43264830112457275391 ,1.10229563713073730469 ,0.58248114585876464844 ,0.34588640928268432617 ,-0.16167025268077850342 ,-0.16910070180892944336 ,0.14116740226745605469 ,0.94916367530822753906 ,-0.35733649134635925293 ,-0.70944488048553466797 ,-1.56088387966156005859 ,0.64197760820388793945 ,1.57201576232910156250 ,1.05708360671997070312 ,1.47198617458343505859 ,-0.27293699979782104492 ,-2.50160574913024902344 ,-3.39643740653991699219 ,-1.10662591457366943359 ,1.77695024013519287109 ,0.68853110074996948242 ,2.60095572471618652344 ,-0.97100305557250976562 ,-0.54948318004608154297 ,-0.15872114896774291992 ,1.27317297458648681641 ,-5.90793228149414062500 ,0.80543375015258789062 ,0.73248493671417236328  },
 {-0.02193977311253547668 ,-0.24572159349918365479 ,0.13809111714363098145 ,0.93515551090240478516 ,2.49126744270324707031 ,2.16766214370727539062 ,-0.94776701927185058594 ,1.00247061252593994141 ,-3.51364064216613769531 ,2.37054419517517089844 ,2.08978462219238281250 ,1.12578570842742919922 ,-0.52047878503799438477 ,-0.26124876737594604492 ,-0.94384479522705078125 ,-2.11988687515258789062 ,0.31795215606689453125 ,0.94043576717376708984 ,2.47065973281860351562 ,3.24222588539123535156 ,0.25259414315223693848 ,0.43081089854240417480 ,0.33990421891212463379 ,0.94900614023208618164 ,3.40252780914306640625 ,3.24269795417785644531 ,2.55571818351745605469 ,-3.61219859123229980469 ,-1.22058701515197753906 ,0.05125486105680465698 ,-0.84846931695938110352 ,1.58912503719329833984 ,0.81097990274429321289 ,0.58296734094619750977 ,-0.49680262804031372070 ,0.20647160708904266357 ,0.24736227095127105713 ,-0.50561946630477905273 ,-0.13986478745937347412 ,1.80973803997039794922 ,4.10661888122558593750 ,1.07233691215515136719 ,-1.87148618698120117188 ,-0.30680960416793823242 ,0.50569909811019897461 ,0.34286943078041076660 ,-0.17585207521915435791 ,-0.12639062106609344482 ,-0.14986333250999450684 ,-0.01013934798538684845 ,-0.60455691814422607422 ,-0.64171987771987915039 ,-2.13481116294860839844 ,0.12677325308322906494 ,1.19458901882171630859 ,-0.03320097178220748901 ,-7.99767446517944335938 ,-0.00372049142606556416 ,-0.32346090674400329590 ,0.18584787845611572266 ,0.00106155464891344309 ,0.17213611304759979248 ,0.41339361667633056641 ,-0.91750162839889526367 ,-0.76731336116790771484 ,-0.51853060722351074219 ,0.68811267614364624023 ,0.41777485609054565430 ,-0.14158594608306884766 ,-3.77116775512695312500 ,-8.84360980987548828125 ,-0.33306780457496643066 ,-0.49178907275199890137 ,0.16883905231952667236 ,-0.24820870161056518555 ,0.33835443854331970215 ,0.45138120651245117188 ,-1.73590552806854248047 ,-0.39564922451972961426 ,-0.51103234291076660156 ,-1.06215131282806396484 ,0.32898357510566711426 ,2.44692039489746093750 ,-6.67436838150024414062 ,-7.88523530960083007812 ,-1.05207645893096923828 ,-0.66015684604644775391 ,0.11915668100118637085 ,0.20453260838985443115 ,1.72117924690246582031 ,1.00085353851318359375 ,-1.04478168487548828125 ,-0.37662601470947265625 ,0.30007568001747131348 ,-1.10930800437927246094 ,0.46975198388099670410 ,1.33559024333953857422 ,-0.86325633525848388672 ,-0.86982703208923339844 ,-1.79257118701934814453 ,1.27090346813201904297 ,1.39413774013519287109 ,0.29322659969329833984 ,-0.45086941123008728027 ,-0.03523756191134452820 ,1.06757330894470214844 ,0.38881933689117431641 ,0.28926885128021240234 ,-0.46371790766716003418 ,-0.31168261170387268066 ,1.53641915321350097656 ,3.49611711502075195312 ,-5.21697425842285156250 ,1.34520661830902099609 ,-0.83841317892074584961 ,0.16944643855094909668 ,-0.99201118946075439453 ,-1.06927418708801269531 ,0.85342019796371459961 ,0.31095004081726074219 ,0.41451033949851989746 ,1.24541282653808593750 ,0.05885890126228332520 ,-0.32055747509002685547 ,1.85399770736694335938 ,0.47536307573318481445 ,-6.85228443145751953125 ,1.27777063846588134766 ,-0.66356420516967773438 ,-2.11110734939575195312 ,-1.88752400875091552734 ,0.20058113336563110352 ,0.41872334480285644531 ,-1.10026943683624267578 ,-0.21758693456649780273 ,1.02483630180358886719 ,-0.08213143795728683472 ,-0.84702038764953613281 ,0.42934301495552062988 ,-3.16153907775878906250 ,-0.46838942170143127441 ,-1.20108389854431152344 ,-0.53312563896179199219 ,-1.24118125438690185547 ,-0.05444261804223060608 ,1.76656079292297363281 ,0.49834433197975158691 ,-0.25538581609725952148 ,0.00742788659408688545 ,0.54471302032470703125 ,0.78245252370834350586 ,0.70342218875885009766 ,0.08542149513959884644 ,2.22536921501159667969 ,0.82031947374343872070 ,-0.19150526821613311768 ,-0.19180513918399810791 ,0.63832998275756835938 ,0.45694637298583984375 ,0.75370758771896362305 ,1.30331420898437500000 ,0.78239262104034423828 ,0.42130908370018005371 ,0.14369902014732360840 ,0.76537489891052246094 ,1.50945746898651123047 ,-0.62352168560028076172 ,-0.87490171194076538086 ,-0.47666555643081665039 ,0.83350038528442382812 ,-1.85205936431884765625 ,-2.30002260208129882812 ,-1.84154927730560302734 ,-0.74262869358062744141 ,1.16147494316101074219 ,0.75436753034591674805 ,0.34481659531593322754 ,0.35201978683471679688 ,0.56435066461563110352 ,-0.10466612875461578369 ,-2.48657703399658203125 ,-1.16629481315612792969 ,-0.20539779961109161377 ,0.41570216417312622070 ,-5.00717353820800781250 ,-5.67025279998779296875 ,-5.37528181076049804688 ,-2.98479986190795898438 ,-2.20418572425842285156 ,-0.86490947008132934570 ,-1.46228182315826416016 ,-0.91360193490982055664 ,-3.18934035301208496094 ,-1.01220822334289550781 ,3.93698644638061523438 ,0.01794509962201118469  },
 {-0.03383192047476768494 ,-1.40213811397552490234 ,-0.49330282211303710938 ,-1.43250715732574462891 ,-0.23001334071159362793 ,0.34447661042213439941 ,-1.32559382915496826172 ,3.49012207984924316406 ,1.72598111629486083984 ,1.57431697845458984375 ,1.74454605579376220703 ,3.25422477722167968750 ,0.60003632307052612305 ,-0.14467670023441314697 ,-0.67113941907882690430 ,-3.56438517570495605469 ,1.47459733486175537109 ,1.77437293529510498047 ,-0.43085494637489318848 ,1.95984959602355957031 ,0.28740102052688598633 ,0.64184945821762084961 ,-0.33760064840316772461 ,-0.08494566380977630615 ,-0.52319884300231933594 ,0.57540524005889892578 ,0.12316616624593734741 ,0.26129403710365295410 ,-0.66989231109619140625 ,1.59434843063354492188 ,0.65709942579269409180 ,1.19674968719482421875 ,-0.31061837077140808105 ,2.03443098068237304688 ,0.67494362592697143555 ,-0.65262174606323242188 ,-0.20527815818786621094 ,-0.36822274327278137207 ,-0.08340515196323394775 ,0.65358418226242065430 ,2.38917040824890136719 ,-2.07068729400634765625 ,-4.09601163864135742188 ,0.60227203369140625000 ,1.13633072376251220703 ,0.48301172256469726562 ,0.71320390701293945312 ,0.42023837566375732422 ,-0.20147588849067687988 ,0.22121199965476989746 ,-0.23111413419246673584 ,-0.24001888930797576904 ,-0.68561595678329467773 ,-2.36907935142517089844 ,-1.48471546173095703125 ,-4.86166954040527343750 ,-3.48884558677673339844 ,-0.54241859912872314453 ,-0.34435880184173583984 ,-0.21226041018962860107 ,-0.41922500729560852051 ,-0.30327323079109191895 ,0.63895946741104125977 ,-0.24255689978599548340 ,-0.46947094798088073730 ,-0.35938248038291931152 ,-1.13866794109344482422 ,-1.93674671649932861328 ,-3.51571893692016601562 ,-4.90752553939819335938 ,-3.88804578781127929688 ,-0.40844976902008056641 ,0.07521304488182067871 ,-1.01594340801239013672 ,-0.37115105986595153809 ,0.50561636686325073242 ,0.50935220718383789062 ,-0.36160361766815185547 ,-0.03039702214300632477 ,-0.12895634770393371582 ,-0.97944223880767822266 ,-0.23837894201278686523 ,-0.50101226568222045898 ,-1.01239979267120361328 ,-5.71148014068603515625 ,-3.65630412101745605469 ,-1.40955364704132080078 ,-0.42564633488655090332 ,-0.55541509389877319336 ,-0.25786295533180236816 ,0.16608907282352447510 ,0.90867334604263305664 ,0.90471452474594116211 ,0.41315469145774841309 ,0.98282545804977416992 ,0.83331215381622314453 ,0.01519977580755949020 ,0.15236520767211914062 ,-1.82343852519989013672 ,0.37274193763732910156 ,-0.23035801947116851807 ,0.96007758378982543945 ,-0.58326470851898193359 ,-0.39307415485382080078 ,0.60678791999816894531 ,1.51278042793273925781 ,1.12795150279998779297 ,0.51865327358245849609 ,0.80229884386062622070 ,0.47097060084342956543 ,0.49639511108398437500 ,3.82383847236633300781 ,1.34227764606475830078 ,1.64016699790954589844 ,1.31024563312530517578 ,1.70789420604705810547 ,0.20810966193675994873 ,-1.31898200511932373047 ,0.08357384055852890015 ,0.47545361518859863281 ,0.38277512788772583008 ,1.64285778999328613281 ,1.13682639598846435547 ,0.15894274413585662842 ,-0.50990724563598632812 ,-0.66716325283050537109 ,-3.54842638969421386719 ,0.06842371821403503418 ,1.56197702884674072266 ,0.92119610309600830078 ,0.25589865446090698242 ,0.09457667171955108643 ,-0.39923787117004394531 ,0.35595014691352844238 ,0.76137441396713256836 ,0.72046446800231933594 ,0.42421630024909973145 ,-0.68304866552352905273 ,-0.20170646905899047852 ,-1.50245928764343261719 ,-2.02277255058288574219 ,-2.38289117813110351562 ,-0.63386172056198120117 ,-0.01992623880505561829 ,-0.18377959728240966797 ,-0.72902697324752807617 ,-0.39130789041519165039 ,0.60944014787673950195 ,-0.53460335731506347656 ,0.35176998376846313477 ,0.48374763131141662598 ,0.80564421415328979492 ,0.52692669630050659180 ,-3.31168055534362792969 ,0.35973873734474182129 ,-1.94158697128295898438 ,-3.89439725875854492188 ,-1.41338860988616943359 ,-0.44355028867721557617 ,0.02082653529942035675 ,0.05508520454168319702 ,-0.46706959605216979980 ,-0.56695818901062011719 ,0.88567399978637695312 ,1.21511876583099365234 ,0.15785260498523712158 ,-0.17398563027381896973 ,-5.08936309814453125000 ,-0.49661391973495483398 ,5.02430295944213867188 ,2.10736060142517089844 ,-0.46058574318885803223 ,1.32512497901916503906 ,1.06352341175079345703 ,0.28756675124168395996 ,0.18545012176036834717 ,0.45754310488700866699 ,1.29852008819580078125 ,2.45678281784057617188 ,0.22637546062469482422 ,1.25793349742889404297 ,-1.50071322917938232422 ,0.16103002429008483887 ,2.05786085128784179688 ,3.62266373634338378906 ,1.33304452896118164062 ,-0.59960973262786865234 ,1.13170993328094482422 ,0.99695402383804321289 ,0.60685759782791137695 ,0.85958117246627807617 ,0.91883754730224609375 ,1.31312918663024902344 ,-0.66402465105056762695 ,2.47410726547241210938 ,-0.07443687319755554199  },
 {-0.01410655584186315536 ,0.24425299465656280518 ,0.70642793178558349609 ,0.29981043934822082520 ,-3.17243409156799316406 ,0.58063656091690063477 ,0.34159818291664123535 ,4.92239952087402343750 ,6.03895807266235351562 ,-2.84951806068420410156 ,0.59730011224746704102 ,-3.17515277862548828125 ,-1.73257935047149658203 ,-0.26525437831878662109 ,0.11534877121448516846 ,3.94291877746582031250 ,2.68817281723022460938 ,-1.76848745346069335938 ,-1.34647977352142333984 ,-1.08408606052398681641 ,2.46296882629394531250 ,2.08315777778625488281 ,-1.36107158660888671875 ,0.59081059694290161133 ,1.01134073734283447266 ,0.37674894928932189941 ,-2.44729304313659667969 ,0.30540198087692260742 ,0.41480770707130432129 ,1.77458548545837402344 ,2.69086050987243652344 ,-1.32881772518157958984 ,-1.37202441692352294922 ,-1.16838014125823974609 ,0.57305550575256347656 ,-0.17551232874393463135 ,-1.75078773498535156250 ,-1.09069359302520751953 ,-0.74964714050292968750 ,-0.62081825733184814453 ,0.60620552301406860352 ,3.37151765823364257812 ,0.58748447895050048828 ,1.38615608215332031250 ,-0.13664680719375610352 ,-0.27430635690689086914 ,-0.51445758342742919922 ,-0.18815605342388153076 ,0.70982921123504638672 ,0.51703125238418579102 ,-0.78682321310043334961 ,-0.81417757272720336914 ,0.02435608394443988800 ,-0.22702145576477050781 ,0.28216928243637084961 ,-0.17928004264831542969 ,6.26304674148559570312 ,2.85650300979614257812 ,-0.54230117797851562500 ,0.70415484905242919922 ,0.43226674199104309082 ,0.90537035465240478516 ,1.85574114322662353516 ,-0.33954358100891113281 ,-2.60088944435119628906 ,-1.40508878231048583984 ,-0.52593302726745605469 ,0.15185317397117614746 ,-0.52438735961914062500 ,-4.91223859786987304688 ,5.84405851364135742188 ,0.94917100667953491211 ,-0.28624227643013000488 ,-0.44638073444366455078 ,-0.04533532261848449707 ,1.78289842605590820312 ,2.28543686866760253906 ,-1.18619573116302490234 ,-0.97420412302017211914 ,-0.92063570022583007812 ,-0.83295947313308715820 ,0.91205471754074096680 ,1.07335710525512695312 ,-8.36297321319580078125 ,4.58401298522949218750 ,0.13274160027503967285 ,-1.19606328010559082031 ,-0.56805181503295898438 ,0.77520865201950073242 ,0.85979282855987548828 ,-0.09069061279296875000 ,-0.07250335812568664551 ,-0.47138357162475585938 ,-0.89104890823364257812 ,-0.76416754722595214844 ,0.85018181800842285156 ,1.62438821792602539062 ,-4.29941272735595703125 ,1.51288938522338867188 ,-2.06347823143005371094 ,-1.54695618152618408203 ,-1.24302780628204345703 ,0.72174191474914550781 ,0.91533380746841430664 ,0.78155446052551269531 ,-0.33153444528579711914 ,-0.25604254007339477539 ,0.32504594326019287109 ,0.53816133737564086914 ,1.18405473232269287109 ,3.08051705360412597656 ,-2.88309884071350097656 ,0.11377177387475967407 ,-4.10082769393920898438 ,1.53867352008819580078 ,0.93827342987060546875 ,0.39640644192695617676 ,0.58758127689361572266 ,0.13742357492446899414 ,-0.29292899370193481445 ,-1.05368483066558837891 ,1.18865466117858886719 ,0.18159991502761840820 ,1.40390312671661376953 ,1.08141434192657470703 ,-7.32364654541015625000 ,2.15824842453002929688 ,-5.96717453002929687500 ,-0.86181133985519409180 ,-1.12019658088684082031 ,-0.65413820743560791016 ,-0.02988042123615741730 ,-1.19708037376403808594 ,0.54685485363006591797 ,0.32802796363830566406 ,0.21156816184520721436 ,0.22966396808624267578 ,0.56123322248458862305 ,0.66719681024551391602 ,-0.56158238649368286133 ,1.28025722503662109375 ,-3.26510500907897949219 ,-1.19683349132537841797 ,-1.61929702758789062500 ,-0.30648571252822875977 ,0.00456997193396091461 ,-0.80942362546920776367 ,0.90121912956237792969 ,0.71714562177658081055 ,0.91185009479522705078 ,0.54108339548110961914 ,-0.36781504750251770020 ,2.36033940315246582031 ,1.45360374450683593750 ,0.21934705972671508789 ,-2.19431924819946289062 ,1.12711632251739501953 ,0.11646820604801177979 ,0.12842568755149841309 ,-0.89478117227554321289 ,0.00658734655007719994 ,0.04372466728091239929 ,0.01308105234056711197 ,1.00006306171417236328 ,-0.07312417775392532349 ,-1.37626540660858154297 ,2.31699252128601074219 ,4.82400321960449218750 ,0.21777978539466857910 ,-3.01169013977050781250 ,1.40380990505218505859 ,-1.47297143936157226562 ,0.08845528960227966309 ,0.73237645626068115234 ,0.30300366878509521484 ,0.17245608568191528320 ,0.87930566072463989258 ,1.26901018619537353516 ,-0.17133072018623352051 ,-0.53353780508041381836 ,2.83502936363220214844 ,2.73402881622314453125 ,0.08287669718265533447 ,0.91937148571014404297 ,2.24333977699279785156 ,0.97935307025909423828 ,2.38814449310302734375 ,2.11157011985778808594 ,0.49620792269706726074 ,0.37202122807502746582 ,-0.71883887052536010742 ,-2.14993524551391601562 ,3.92313313484191894531 ,1.93930149078369140625 ,-1.42913031578063964844 ,-0.26728042960166931152  },
 {0.02595394477248191833 ,1.42345845699310302734 ,1.29819691181182861328 ,1.61080145835876464844 ,-2.10355234146118164062 ,3.58237314224243164062 ,0.00593571085482835770 ,-5.34700679779052734375 ,-2.59188461303710937500 ,0.86476749181747436523 ,2.24327850341796875000 ,0.82702457904815673828 ,1.13072216510772705078 ,0.03819279745221138000 ,-1.09957194328308105469 ,2.56120204925537109375 ,2.51521635055541992188 ,3.48251938819885253906 ,3.24772405624389648438 ,3.09893298149108886719 ,4.01472473144531250000 ,2.32473921775817871094 ,1.45436120033264160156 ,0.09337168931961059570 ,-0.51502192020416259766 ,0.49621960520744323730 ,1.71843647956848144531 ,-2.72649478912353515625 ,-2.35597753524780273438 ,-0.54972606897354125977 ,-3.16063570976257324219 ,-1.34267747402191162109 ,1.08975374698638916016 ,-0.05573482811450958252 ,-1.34121584892272949219 ,-0.59253728389739990234 ,-0.10104784369468688965 ,0.22197453677654266357 ,-0.02704195678234100342 ,-1.71200561523437500000 ,0.39883607625961303711 ,1.20008265972137451172 ,-5.49197196960449218750 ,-2.17834925651550292969 ,1.95079135894775390625 ,0.73476719856262207031 ,1.87605285644531250000 ,-2.20864033699035644531 ,-2.86001276969909667969 ,-0.38316684961318969727 ,1.05579590797424316406 ,1.64381492137908935547 ,1.70602238178253173828 ,-0.17106379568576812744 ,0.79361093044281005859 ,0.39524245262145996094 ,-6.29500150680541992188 ,0.00733253220096230507 ,2.61749744415283203125 ,-0.15845942497253417969 ,-1.81262004375457763672 ,-0.02807685732841491699 ,0.06631539016962051392 ,1.28065931797027587891 ,0.54747080802917480469 ,0.91507917642593383789 ,1.37084126472473144531 ,0.61026930809020996094 ,0.04356567561626434326 ,-1.91894733905792236328 ,2.97698879241943359375 ,-0.03479453176259994507 ,-1.66553580760955810547 ,-2.16537857055664062500 ,-0.79244434833526611328 ,0.69636493921279907227 ,0.07372874021530151367 ,0.94120037555694580078 ,-1.12972462177276611328 ,-0.92016553878784179688 ,-1.50751733779907226562 ,0.94412821531295776367 ,3.43195700645446777344 ,0.11587176471948623657 ,4.44000482559204101562 ,-0.63621473312377929688 ,0.70423346757888793945 ,-0.02719276212155818939 ,-0.16181896626949310303 ,-0.46672612428665161133 ,-0.44647142291069030762 ,0.47116553783416748047 ,0.05195166170597076416 ,0.13014797866344451904 ,-0.78370386362075805664 ,2.34251976013183593750 ,0.43237629532814025879 ,-4.83529472351074218750 ,-3.47538733482360839844 ,-2.97535824775695800781 ,0.57882767915725708008 ,0.11718656122684478760 ,0.00706324027851223946 ,0.65510207414627075195 ,0.43326395750045776367 ,-0.34057128429412841797 ,0.21066553890705108643 ,0.73136228322982788086 ,1.44747507572174072266 ,0.35199850797653198242 ,-3.94219350814819335938 ,-8.14819812774658203125 ,3.58116436004638671875 ,-1.43212556838989257812 ,-0.12754531204700469971 ,0.71180909872055053711 ,0.87154841423034667969 ,-0.15570144355297088623 ,-1.83866298198699951172 ,-0.97867304086685180664 ,0.46964633464813232422 ,0.29254877567291259766 ,0.20770557224750518799 ,-1.74655890464782714844 ,-5.81725311279296875000 ,-0.51130884885787963867 ,1.88809657096862792969 ,-0.68953686952590942383 ,0.50435245037078857422 ,1.06998658180236816406 ,0.71364164352416992188 ,-0.09020316600799560547 ,-1.02325057983398437500 ,1.01053178310394287109 ,1.08946883678436279297 ,0.07917163521051406860 ,-0.97204136848449707031 ,-1.54169070720672607422 ,-4.00111103057861328125 ,4.88303709030151367188 ,-3.62187290191650390625 ,-0.82803744077682495117 ,-0.11654233932495117188 ,0.57204365730285644531 ,1.47611308097839355469 ,1.28745007514953613281 ,1.25007772445678710938 ,1.34654605388641357422 ,0.15653042495250701904 ,0.53779804706573486328 ,-2.24036383628845214844 ,-4.28134918212890625000 ,-2.88590955734252929688 ,4.18904685974121093750 ,-0.12273451685905456543 ,-1.30403327941894531250 ,-2.92800116539001464844 ,-1.40815126895904541016 ,0.74971199035644531250 ,0.62433439493179321289 ,1.00319874286651611328 ,-0.69933801889419555664 ,-1.50256562232971191406 ,-1.44674003124237060547 ,-4.67134284973144531250 ,-6.63842535018920898438 ,2.98481845855712890625 ,2.69545912742614746094 ,-1.25585150718688964844 ,-0.91431832313537597656 ,-1.03523218631744384766 ,-1.15606498718261718750 ,-0.02467121928930282593 ,-0.96472787857055664062 ,-1.89852559566497802734 ,-2.59128403663635253906 ,-1.38360726833343505859 ,-0.68092435598373413086 ,-6.60443449020385742188 ,-4.70969724655151367188 ,1.44017970561981201172 ,-1.47672820091247558594 ,0.04667290672659873962 ,-0.59378278255462646484 ,-0.88994824886322021484 ,0.29074308276176452637 ,-0.23283445835113525391 ,0.48209816217422485352 ,-0.78615325689315795898 ,-1.04133081436157226562 ,-0.54059875011444091797 ,1.17886078357696533203 ,2.71626949310302734375 ,-6.03415679931640625000 ,-3.89527630805969238281 ,-0.12441682070493698120  },
 {-0.00169971596915274858 ,-0.10612190514802932739 ,-0.07024655491113662720 ,-0.50798851251602172852 ,-1.84881913661956787109 ,-3.71673107147216796875 ,-6.56878232955932617188 ,-0.27301427721977233887 ,2.16750907897949218750 ,-3.72817564010620117188 ,2.00608301162719726562 ,1.53360784053802490234 ,-0.24928809702396392822 ,0.02256496995687484741 ,1.57398664951324462891 ,2.61495351791381835938 ,-0.45380020141601562500 ,-0.78502261638641357422 ,-0.80431324243545532227 ,2.59336090087890625000 ,1.26624059677124023438 ,1.16477060317993164062 ,-0.61845129728317260742 ,1.91788804531097412109 ,1.83268630504608154297 ,-0.97467827796936035156 ,-1.48432433605194091797 ,-1.05945515632629394531 ,1.70474898815155029297 ,1.26719367504119873047 ,1.40236711502075195312 ,1.23409998416900634766 ,-0.34520322084426879883 ,0.88273185491561889648 ,0.61438125371932983398 ,0.90453207492828369141 ,0.50051575899124145508 ,0.44959637522697448730 ,0.54315936565399169922 ,0.99167305231094360352 ,1.95668387413024902344 ,0.82058107852935791016 ,-4.03645944595336914062 ,0.15447749197483062744 ,1.73278141021728515625 ,0.50678175687789916992 ,0.12982156872749328613 ,-1.00800013542175292969 ,-0.52846640348434448242 ,-0.07456772029399871826 ,-0.10398439317941665649 ,-0.07558023184537887573 ,-0.64358979463577270508 ,-1.61278450489044189453 ,-1.27974140644073486328 ,-1.02952170372009277344 ,0.96813511848449707031 ,2.59376144409179687500 ,0.44822943210601806641 ,-0.27847152948379516602 ,0.61526685953140258789 ,-1.07434999942779541016 ,-1.02170205116271972656 ,-1.04483926296234130859 ,-0.15414866805076599121 ,1.63520479202270507812 ,0.29159832000732421875 ,-0.27424395084381103516 ,-0.26790326833724975586 ,2.24984860420227050781 ,-1.14744436740875244141 ,-0.70560830831527709961 ,-1.72386622428894042969 ,0.69460344314575195312 ,0.63018900156021118164 ,-0.81949990987777709961 ,-0.28403148055076599121 ,-0.29940760135650634766 ,0.62266594171524047852 ,1.56951022148132324219 ,-1.11897397041320800781 ,-2.44866824150085449219 ,3.32813787460327148438 ,0.98493361473083496094 ,-3.40418314933776855469 ,-3.58866310119628906250 ,-1.10300922393798828125 ,0.86030191183090209961 ,-0.22474668920040130615 ,1.31233370304107666016 ,1.29261243343353271484 ,0.62144327163696289062 ,0.34618774056434631348 ,0.82426804304122924805 ,-0.50858145952224731445 ,-3.21275186538696289062 ,1.56856834888458251953 ,-2.19361162185668945312 ,-3.34473323822021484375 ,-1.37270796298980712891 ,-0.43506637215614318848 ,0.09908711910247802734 ,-0.21246540546417236328 ,-0.24180358648300170898 ,1.21896147727966308594 ,1.76179897785186767578 ,0.90614175796508789062 ,-1.05717515945434570312 ,-1.14809477329254150391 ,-1.70860183238983154297 ,-2.86784601211547851562 ,-2.37661027908325195312 ,-2.06344175338745117188 ,0.93073379993438720703 ,0.09815058112144470215 ,0.55060136318206787109 ,-0.52322793006896972656 ,-1.76014220714569091797 ,-1.42257761955261230469 ,-0.58826404809951782227 ,-0.12746539711952209473 ,-1.23479962348937988281 ,-2.09279131889343261719 ,-0.21293449401855468750 ,0.19042916595935821533 ,4.54796361923217773438 ,-6.50067901611328125000 ,1.98259747028350830078 ,1.04497623443603515625 ,1.17138314247131347656 ,0.42453473806381225586 ,-0.11585839837789535522 ,-1.22097003459930419922 ,0.11091651022434234619 ,1.30336666107177734375 ,0.58743935823440551758 ,-0.03489703685045242310 ,-0.03529100492596626282 ,-0.43707951903343200684 ,2.69261145591735839844 ,1.23752999305725097656 ,-0.28896591067314147949 ,-0.46165537834167480469 ,-0.28436544537544250488 ,-0.65496855974197387695 ,0.36181399226188659668 ,0.04064984247088432312 ,0.53123128414154052734 ,0.59190511703491210938 ,0.49681335687637329102 ,0.14670151472091674805 ,-0.86209183931350708008 ,-1.76584351062774658203 ,0.70073437690734863281 ,2.64877653121948242188 ,-1.61887443065643310547 ,0.62224090099334716797 ,0.61331552267074584961 ,0.09044934809207916260 ,1.09118235111236572266 ,-0.31299343705177307129 ,0.15161661803722381592 ,-0.68987292051315307617 ,0.68226695060729980469 ,0.22686241567134857178 ,0.54995232820510864258 ,-0.21034042537212371826 ,0.09762300550937652588 ,-0.24848227202892303467 ,-0.47326791286468505859 ,0.25191828608512878418 ,-1.25209367275238037109 ,-0.33833011984825134277 ,-0.14102771878242492676 ,-0.59561353921890258789 ,0.33428800106048583984 ,0.20278003811836242676 ,2.46072244644165039062 ,1.54743993282318115234 ,2.22675490379333496094 ,-1.06535780429840087891 ,0.95396935939788818359 ,0.06361366063356399536 ,-2.94233489036560058594 ,-0.54442268610000610352 ,-0.79757231473922729492 ,-1.21094560623168945312 ,-0.53410559892654418945 ,-3.01153683662414550781 ,-0.44808703660964965820 ,0.35717862844467163086 ,-0.64018255472183227539 ,1.48734796047210693359 ,2.69927859306335449219 ,-0.61783105134963989258 ,0.09598951786756515503  },
 {0.01513281371444463730 ,-0.05732889100909233093 ,0.02731569111347198486 ,0.54953783750534057617 ,1.37782788276672363281 ,2.53170347213745117188 ,-4.86915016174316406250 ,1.37108886241912841797 ,2.66266369819641113281 ,0.11098526418209075928 ,-1.24932324886322021484 ,0.84612131118774414062 ,2.37050819396972656250 ,0.72822892665863037109 ,-0.16612170636653900146 ,-0.12325039505958557129 ,1.51733720302581787109 ,0.47952771186828613281 ,-3.91619157791137695312 ,-6.49560117721557617188 ,-5.38756084442138671875 ,-2.02120256423950195312 ,-3.64519333839416503906 ,-2.33869647979736328125 ,-0.72744411230087280273 ,3.30460691452026367188 ,1.55309784412384033203 ,0.60202264785766601562 ,-0.07439232617616653442 ,5.05753946304321289062 ,0.15235558152198791504 ,-1.16896605491638183594 ,-0.67905551195144653320 ,-1.01652574539184570312 ,0.98254376649856567383 ,0.44070655107498168945 ,-0.67464047670364379883 ,-0.12092170864343643188 ,1.11398947238922119141 ,1.38326060771942138672 ,-0.04256773367524147034 ,5.36397123336791992188 ,2.77811360359191894531 ,6.27139854431152343750 ,-0.18555350601673126221 ,0.74398702383041381836 ,-0.12519767880439758301 ,-0.02765229344367980957 ,-0.06129708886146545410 ,-0.71614569425582885742 ,-0.37621802091598510742 ,0.64368200302124023438 ,0.08201085776090621948 ,1.31543529033660888672 ,-0.22255787253379821777 ,0.82070964574813842773 ,-1.25850331783294677734 ,2.56948876380920410156 ,0.19403313100337982178 ,0.76917028427124023438 ,-1.55187821388244628906 ,-1.01394081115722656250 ,-0.03333296254277229309 ,0.33112382888793945312 ,0.60570329427719116211 ,0.64717876911163330078 ,0.08015774190425872803 ,1.26917898654937744141 ,0.81469148397445678711 ,-2.21687626838684082031 ,-1.97073972225189208984 ,4.85734033584594726562 ,2.05757379531860351562 ,1.31129395961761474609 ,0.74386441707611083984 ,1.60870075225830078125 ,-0.43714869022369384766 ,-1.24931216239929199219 ,0.10872396826744079590 ,-0.18456356227397918701 ,0.42634230852127075195 ,-0.28925943374633789062 ,-0.13603943586349487305 ,-0.82583874464035034180 ,-3.99505400657653808594 ,0.14946073293685913086 ,-0.10308080911636352539 ,1.83857989311218261719 ,1.64353501796722412109 ,-0.46741852164268493652 ,-2.20506095886230468750 ,-1.16578483581542968750 ,-1.22337520122528076172 ,-0.28396660089492797852 ,-0.10545976459980010986 ,-1.00065279006958007812 ,-0.83776968717575073242 ,-0.21512813866138458252 ,0.96596312522888183594 ,0.00382401514798402786 ,-1.84257376194000244141 ,-2.09412574768066406250 ,-2.11201119422912597656 ,-2.51387023925781250000 ,-0.59032452106475830078 ,0.50358587503433227539 ,-1.35605192184448242188 ,-1.36702716350555419922 ,-2.13721871376037597656 ,-0.00394254131242632866 ,-0.09887084364891052246 ,-4.47438049316406250000 ,-0.66446512937545776367 ,-1.67188167572021484375 ,-3.88697075843811035156 ,-3.96631217002868652344 ,-1.47889876365661621094 ,0.66840362548828125000 ,1.50175023078918457031 ,0.64032566547393798828 ,0.63034981489181518555 ,0.13690513372421264648 ,-0.71285682916641235352 ,0.59863471984863281250 ,-0.47901761531829833984 ,-0.15981400012969970703 ,2.45828270912170410156 ,-1.21658813953399658203 ,-1.66794550418853759766 ,1.37394392490386962891 ,0.28925859928131103516 ,0.60131138563156127930 ,1.63924145698547363281 ,0.64405030012130737305 ,0.51800501346588134766 ,0.76594996452331542969 ,0.25850498676300048828 ,-1.14600026607513427734 ,-0.07747094333171844482 ,0.24907685816287994385 ,1.89715456962585449219 ,1.42797136306762695312 ,0.18520703911781311035 ,1.18731236457824707031 ,0.42268195748329162598 ,0.80185210704803466797 ,0.97278374433517456055 ,0.46247109770774841309 ,0.39199784398078918457 ,0.49694830179214477539 ,-1.43529129028320312500 ,-0.67507648468017578125 ,2.89977812767028808594 ,-0.04096651077270507812 ,0.85383099317550659180 ,3.67959332466125488281 ,1.56540274620056152344 ,0.65746885538101196289 ,0.35955515503883361816 ,0.52133029699325561523 ,1.12331867218017578125 ,0.38328585028648376465 ,1.05114185810089111328 ,0.29002535343170166016 ,-1.34145927429199218750 ,-0.57336550951004028320 ,1.05274653434753417969 ,-2.48983955383300781250 ,0.15009905397891998291 ,0.81404197216033935547 ,-0.33923193812370300293 ,-0.06641536206007003784 ,-0.46766120195388793945 ,-0.47718307375907897949 ,0.03848459944128990173 ,0.30308756232261657715 ,0.79990667104721069336 ,0.55429911613464355469 ,1.36735236644744873047 ,1.27072763442993164062 ,0.71633905172348022461 ,-1.09237813949584960938 ,-0.70804482698440551758 ,-1.32760035991668701172 ,-1.09379434585571289062 ,1.79584491252899169922 ,-0.78017711639404296875 ,-1.43548715114593505859 ,-0.01370455045253038406 ,-1.98782181739807128906 ,-1.19759094715118408203 ,-0.07856582105159759521 ,1.46655118465423583984 ,1.85341548919677734375 ,-5.33681631088256835938 ,-0.14355762302875518799  },
